tree
version=v4
num_class=1
num_tree_per_iteration=1
label_index=0
max_feature_idx=429
objective=binary sigmoid:1
feature_names=TransactionDT TransactionAmt ProductCD card1 card2 card3 card4 card5 card6 addr1 addr2 dist1 P_emaildomain R_emaildomain C1 C2 C3 C4 C5 C6 C7 C8 C9 C10 C11 C12 C13 C14 D1 D2 D3 D4 D5 D6 D8 D9 D10 D11 D12 D13 D14 D15 M1 M2 M3 M4 M5 M6 M7 M8 M9 V1 V2 V3 V4 V5 V6 V7 V8 V9 V10 V11 V12 V13 V14 V15 V16 V17 V18 V19 V20 V21 V22 V23 V24 V25 V26 V27 V28 V29 V30 V31 V32 V33 V34 V35 V36 V37 V38 V39 V40 V41 V42 V43 V44 V45 V46 V47 V48 V49 V50 V51 V52 V53 V54 V55 V56 V57 V58 V59 V60 V61 V62 V63 V64 V65 V66 V67 V68 V69 V70 V71 V72 V73 V74 V75 V76 V77 V78 V79 V80 V81 V82 V83 V84 V85 V86 V87 V88 V89 V90 V91 V92 V93 V94 V95 V96 V97 V98 V99 V100 V101 V102 V103 V104 V105 V106 V107 V108 V109 V110 V111 V112 V113 V114 V115 V116 V117 V118 V119 V120 V121 V122 V123 V124 V125 V126 V127 V128 V129 V130 V131 V132 V133 V134 V135 V136 V137 V138 V139 V140 V141 V142 V143 V144 V145 V146 V147 V148 V149 V150 V151 V152 V153 V154 V155 V156 V157 V158 V159 V160 V161 V162 V163 V164 V165 V166 V167 V168 V169 V170 V171 V172 V173 V174 V175 V176 V177 V178 V179 V180 V181 V182 V183 V184 V185 V186 V187 V188 V189 V190 V191 V192 V193 V194 V195 V196 V197 V198 V199 V200 V201 V202 V203 V204 V205 V206 V207 V208 V209 V210 V211 V212 V213 V214 V215 V216 V217 V218 V219 V220 V221 V222 V223 V224 V225 V226 V227 V228 V229 V230 V231 V232 V233 V234 V235 V236 V237 V238 V239 V240 V241 V242 V243 V244 V245 V246 V247 V248 V249 V250 V251 V252 V253 V254 V255 V256 V257 V258 V259 V260 V261 V262 V263 V264 V265 V266 V267 V268 V269 V270 V271 V272 V273 V274 V275 V276 V277 V278 V279 V280 V281 V282 V283 V284 V285 V286 V287 V288 V289 V290 V291 V292 V293 V294 V295 V296 V297 V298 V299 V300 V301 V302 V303 V304 V305 V306 V307 V308 V309 V310 V311 V312 V313 V314 V315 V316 V317 V318 V319 V320 V321 V322 V323 V324 V325 V326 V327 V328 V329 V330 V331 V332 V333 V334 V335 V336 V337 V338 V339 id_01 id_02 id_03 id_04 id_05 id_06 id_07 id_08 id_09 id_10 id_11 id_12 id_13 id_14 id_15 id_16 id_17 id_18 id_19 id_20 id_21 id_22 id_23 id_24 id_25 id_26 id_27 id_28 id_29 id_30 id_31 id_32 id_33 id_34 id_35 id_36 id_37 id_38 DeviceType DeviceInfo
feature_infos=[86400:12192743] [0.29199999570846558:31937.390625] [0:4] [1000:18395] [100:600] [100:231] [0:4] [100:237] [0:4] [100:540] [10:102] [0:7068] [0:59] [0:60] [0:4682] [0:5690] [0:24] [0:2251] [0:349] [0:2251] [0:2253] [0:3328] [0:210] [0:3254] [0:3186] [0:3186] [0:2915] [0:1426] [0:640] [0:640] [0:689] [-30:812] [0:775] [-6:826] [0:1707.7916259765625] [0:0.95833301544189453] [0:827] [-53:628] [0:616] [0:818] [0:834] [-53:835] [0:2] [0:2] [0:2] [0:3] [0:2] [0:2] [0:2] [0:2] [0:2] [0:1] [0:5] [0:6] [0:5] [0:6] [0:6] [0:7] [0:5] [0:5] [0:4] [0:4] [0:3] [0:5] [0:1] [0:7] [0:14] [0:14] [0:14] [0:7] [0:14] [0:5] [0:8] [0:12] [0:12] [0:4] [0:11] [0:4] [0:4] [0:5] [0:9] [0:7] [0:14] [0:4] [0:11] [0:3] [0:4] [0:54] [0:54] [0:14] [0:23] [0:1] [0:8] [0:8] [0:48] [0:48] [0:6] [0:12] [0:5] [0:5] [0:5] [0:6] [0:12] [0:5] [0:6] [0:16] [0:29] [0:6] [0:6] [0:12] [0:12] [0:6] [0:7] [0:7] [0:7] [0:1] [0:5] [0:8] [0:2] [0:5] [0:5] [0:6] [0:6] [0:5] [0:8] [0:3] [0:6] [0:30] [0:30] [0:7] [0:19] [0:19] [0:7] [0:7] [0:7] [0:7] [0:30] [0:30] [0:1] [0:2] [0:5] [0:6] [0:7] [0:7] [0:1] [0:27] [0:126] [0:48] [0:10] [0:86] [0:28] [0:22] [0:115] [0:44] [0:15] [0:38] [0:23] [0:1] [0:7] [0:7] [0:7] [0:9] [0:9] [0:9] [0:6] [0:6] [0:6] [0:3] [0:3] [0:3] [0:3] [0:3] [0:3] [0:12] [0:12] [0:12] [0:108800] [0:108800] [0:108800] [0:30250] [0:41690] [0:30250] [0:63874.78125] [0:63874.78125] [0:63874.78125] [0:64800] [0:64800] [0:64800] [0:21] [0:33] [0:33] [0:4] [0:9] [0:54] [0:62] [0:297] [0:15] [0:16] [0:14] [0:15] [1:3389] [1:57] [1:69] [0:7] [0:8] [0:13] [0:15] [0:14] [0:15] [0:44186.9296875] [0:641511.4375] [0:3000] [0:3000] [0:3000] [0:20400] [0:20400] [0:64800] [0:58] [0:215] [0:15] [0:48] [0:60] [0:30] [0:7] [0:8] [0:10] [0:48] [0:47] [0:130] [0:68] [0:68] [0:15] [0:49] [0:30] [0:14] [0:16] [0:38] [0:216] [0:17] [0:18] [0:42] [0:21] [0:44] [0:37] [0:7] [0:8] [0:38] [0:13] [0:14] [0:45] [0:45] [0:54] [0:64800] [0:98500] [0:64800] [0:30250] [0:30250] [0:30250] [0:3250] [0:8050] [0:3250] [0:13200] [0:36900] [0:16950] [0:64800] [0:64800] [0:64800] [0:53] [0:218] [0:79] [0:25] [0:384] [0:384] [0:15] [0:143] [0:51] [0:128] [0:360] [0:54] [0:176] [0:65] [0:51] [0:54] [0:51] [0:120] [0:15] [0:34] [0:16] [0:23] [0:23] [0:7] [0:5] [0:20] [0:55] [0:22] [0:262] [0:45] [0:11] [0:36] [0:22] [0:16] [0:16] [0:17] [0:163] [0:60] [0:82] [0:82] [0:48] [0:66] [0:285] [0:8] [0:49] [0:20] [0:102400] [0:102400] [0:102400] [0:30250] [0:30250] [0:30250] [0:30250] [0:4000] [0:4000] [0:4000] [0:15000] [0:26700] [0:20850] [0:64800] [0:64800] [0:64800] [0:65] [0:323] [0:21] [0:27] [0:68] [0:10] [0:95] [0:7] [0:31] [0:10] [0:12] [1:66] [1:1052] [1:323] [0:65] [0:1085] [0:322] [0:61] [0:11] [0:47] [0:25] [0:11] [0:11] [0:10] [0:15] [0:11] none [0:66719.5625] [0:87886.0234375] [0:66719.5625] [0:30250] [0:41690] [0:30250] [0:30250] [0:3499.89990234375] [0:5304.97021484375] [0:4489.85009765625] [0:63874.78125] [0:86660.4140625] [0:63874.78125] [0:64800] [0:64800] [0:64800] [0:32] [0:49] [0:32] [0:10] [0:44] [0:17] [0:15] [0:23] [0:15] [0:108800] [0:108800] [0:108800] [0:30250] [0:41690] [0:30250] [0:64800] [0:64800] [0:64800] [-100:0] [1:997471] [-12:8] [-28:0] [-72:52] [-100:0] [-37:61] [-100:0] [-31:17] [-100:0] [90:100] [0:2] [11:64] [-660:720] [0:3] [0:2] [100:229] [11:29] [100:671] [100:660] [100:854] [10:43] [0:3] [11:26] [100:545] [100:216] [0:2] [0:2] [0:2] [0:72] [0:110] [0:32] [0:212] [0:4] [0:2] [0:2] [0:2] [0:2] [0:2] [0:1639]
tree_sizes=6828 6928 6933 6995 6974 6974 6988 7011 7020 7012 7011 7027 7036 7035 7018 7038 7060 7050 7042 7048 7018 7067 7039 7048 7051 7028 7069 7029 6997 7082 7051 7050 7060 7044 7087 7057 7064 7055 7064 7087 7038 7049 7030 7025 7058 7055 7075 7094 7050 7068 7121 7066 7079 7065 7083 7085 7055 7073 7086 7074 7056 7090 7041 7103 7097 7070 7070 7080 7062 7118 7053 7114 7131 7087 7092 7068 7072 7025 7068 7046 7102 7111 7088 7110 7056 7025 7067 7094 7060 7063 7108 7095 7115 7111 7056 7042 7068 7084 7073 7100 7044 7052 7075 7086 7143 7076 7090 7073 7063 7053 7091 7072 7059 7062 7060 7130 7113 7054 7097 7060 7078 7075 7092 7094 7096 7036 7051 7032 7033 7112 7060 7063 7066 7073 6997 7036 7119 7115 7071 7077 7070 7038 7091 7089 7015 7057 7057 7062 6979 7100 7023 7083 7018 7095 6997 7096 7112 7103 7090 7124 7086 7089 7108 7071 7046 7038 7050 7087 7024 7078 7073 7053 7042 7044 7074 6980 7014 6984 7018 7110 6997 7048 7022 7046 7042 7046 7082 7034 7037 6984 7041 7023 7077 7042 7020 7019 7038 6970 7022 6984 7091 7106 7054 7053 7013 7084 7006 7032 6978 6998 7053 7052 7035 6989 7047 7059 7056 6940 7068 7011 7014 7014 7030 7021 7073 7037 6975 7027 7018 7024 7032 7041 6982 7010 7065 7012 6999 7061 7082 7098 6992 7017 7018 7072 7002 7056 7063 7093 7036 7020 7105 6993 7142 6975 7101 6955 7005 7051 7052 7022 7054 6928 7031 7074 7042 7019 7020 7037 7002 7041 7049 7004 7011 7030 7084 6957 7012 7040 7068 6952 6992 7040 7043 6987 6987 7029 7041 7047 7016 7071 7033 7018 7021 7022 7056 6992 6973 7020 7061 7028 6963 7029 7009 7002 7059 6979 6987 6970 7002 7060 6943 6922 7021 6971 7005 6968 6984 7021 7010 6976 7015 7058 7042 6977 7008 7007 7043 7000 7001 7026 7050 7006 7026 6995 6984 7056 7027 7013 7018 7057 6982 7047 7020 7040 7044 6963 6989 6993 7030 7004 7011 7080 7064 7022 7009 6950 6986 6988 7053 7014 6996 7036 6988 7066 7016 6995 7004 7019 6991 6993 7016 7083 7102 7011 7032 7028 7017 7022 7022 7046 7023 7029 7022 7035 7063 6981 7008 7037 7115 7047 6993 6969 7011 7032 7023 7002 7060 7048 7048 7072 6979 6973 6940 6953 7043 7055 7011 7019 7062 7017 7042 7008 7044 6933 6993 7047 7016 7040 6960 7091 7021 7017 7008 6995 7072 6982 6992 6945 6972 6959 6973

Tree=0
num_leaves=64
num_cat=0
split_feature=308 20 14 199 26 14 27 14 333 27 406 112 15 333 402 206 344 206 4 137 419 237 248 62 219 9 29 26 239 95 8 103 9 21 301 13 0 316 112 29 34 46 87 103 26 26 363 127 1 69 323 29 8 220 4 21 26 14 14 5 419 14 95
split_gain=39897 7632.57 6486.19 6133.73 3682.18 3767.78 3599.46 3831.17 3481.94 2842.62 1956.59 1711.12 1447.38 1379.73 1306.68 1211.87 1128.84 1047.58 886.139 874.143 862.493 759.699 741.314 739.612 712.104 669.891 637.787 561.823 556.817 528.916 494.255 589.923 1561.05 537.655 483.892 438.37 429.57 417.824 411.931 775.988 404.649 399.119 354.394 352.168 734.393 341.646 392.279 359.559 339.248 333.621 332.481 326.425 326.296 322.862 315.076 310.481 701.303 777.541 296.258 294.655 291.415 282.831 274.653
threshold=2.5000000000000004 3.5000000000000004 4.5000000000000009 1.5000000000000002 13.500000000000002 11.500000000000002 1.0000000180025095e-35 2.5000000000000004 3.5000000000000004 1.0000000180025095e-35 193.00000000000003 2.5000000000000004 47.500000000000007 10.500000000000002 16.000000000000004 2.5000000000000004 1.0000000180025095e-35 1.5000000000000002 1.0000000180025095e-35 1.5000000000000002 4.5000000000000009 1.5000000000000002 1.5000000000000002 1.5000000000000002 1.0000000180025095e-35 437.50000000000006 3.5000000000000004 1.5000000000000002 2.5000000000000004 1.5000000000000002 1.5000000000000002 1.5000000000000002 122.50000000000001 3.5000000000000004 1.5000000000000002 18.500000000000004 2504786.5000000005 23.290849685668949 1.5000000000000002 141.50000000000003 105.06250000000001 1.5000000000000002 2.5000000000000004 1.0000000180025095e-35 1.0000000180025095e-35 2.5000000000000004 333.47500610351568 2.5000000000000004 279.97500610351568 1.0000000180025095e-35 33.08024978637696 508.50000000000006 1.5000000000000002 2.5000000000000004 489.50000000000006 2.5000000000000004 1.5000000000000002 3.5000000000000004 3.5000000000000004 184.00000000000003 12.500000000000002 4.5000000000000009 2.5000000000000004
decision_type=10 2 2 10 2 2 2 2 10 2 10 10 2 10 10 10 10 8 10 8 2 10 10 10 10 10 8 2 10 8 2 8 8 2 10 2 2 10 10 10 10 2 10 8 2 2 10 10 2 8 10 8 2 8 10 2 2 2 2 10 2 2 10
left_child=1 3 9 6 5 12 7 10 16 17 34 20 27 52 -9 22 21 36 -12 43 -10 26 58 41 37 49 48 -3 59 -6 38 -32 -33 -34 -1 53 -2 50 -18 -40 -26 45 -30 -20 -45 46 -22 -47 -8 -25 -4 -31 -13 -21 -15 -28 57 -57 -5 -11 -23 -16 -62
right_child=2 4 24 15 29 -7 8 14 11 28 18 13 -14 54 61 -17 30 -19 19 35 23 60 -24 25 40 -27 55 -29 42 51 31 32 33 -35 -36 -37 -38 -39 39 -41 -42 -43 -44 44 -46 47 -48 -49 -50 -51 -52 -53 -54 -55 -56 56 -58 -59 -60 -61 62 -63 -64
leaf_value=-3.2781007236909518 -3.3084183426061977 -2.4090393546287556 -2.2719088809352028 -3.0807922948531559 -3.2517908085547416 -2.1010384744094246 -3.2967304813060032 -3.0709311175952099 -2.2174646398557307 -3.2939837003911605 -2.0324420334775883 -2.6583172967430477 -1.9252499348426781 -2.5936372246414212 -2.4528518414245983 -1.9242107644834567 -3.2410466189504108 -2.2061422175017853 -3.1747419962311776 -2.4421052489479087 -3.1508860117143782 -2.7125461823959811 -2.3481234611165887 -2.4286140648268297 -2.3415928759644951 -2.2509089593759777 -3.3482121004241088 -3.218651698743884 -2.2542909692151039 -3.2459351277231976 -3.3158193281564006 -1.9280192563714085 -3.2654668442374235 -2.5490749044635477 -2.6087213728432239 -3.0103220496416041 -2.5259393046071885 -2.7746470030630506 -3.1222793353874843 -2.1846892067258885 -3.1539055864226553 -3.3042269605654231 -3.0615442875831778 -2.1387184693489667 -3.1692545357124113 -3.2473563213959764 -2.7919987029553202 -2.6558892648393364 -3.138007373079803 -3.1782462897269221 -1.9563043603274159 -2.595871913263911 -3.1288765222460553 -3.03685046810179 -1.9147085202665091 -3.196045429018167 -3.3070633023778093 -2.2994032226803367 -2.4483824641796201 -2.9896316237621861 -3.2205752773811844 -1.9857093582571412 -2.6869505738777968
leaf_weight=601.12774989008904 3.5595766827464104 2.406951852142817 10.204119823873041 10.746531508862978 42.104707047343254 22.713489308953285 346.22815867513418 7.6615650504827526 2.1357460096478453 18.408096559345722 2.1018452793359748 4.8139037042856261 2.8137606158852568 2.9832642674446097 7.4581606686115247 5.7970248833298674 192.21714086830616 18.64540167152882 79.531113311648369 9.0514949932694417 63.868975907564163 3.2205693796277037 7.5259621292352668 1.762837976217267 7.9666716232895833 3.3222715705633155 9812.295182928443 19.526820659637451 3.0171649977564803 2.9493635371327374 692.82922538369894 2.6103562340140334 28.747819304466251 2.881562076508998 2.7120584249496451 12.983979709446428 3.4578744918107986 1.8645401671528805 16.713060043752197 2.5425547733902922 1.898440897464752 143.26448629796505 2.474753312766552 2.6103562340140334 5.1190102770924568 164.18123690038919 8.6446862295269948 2.6103562340140334 37.290803343057632 9.3905022963881493 45.799886651337147 5.5936205014586458 15.696038134396076 3.0510657280683544 4.0002861768007278 7.119153365492819 174.6565625667572 3.6612788736820221 2.2374482005834571 14.001001618802546 62.140038661658764 5.7292234227061272 2.5086540430784217
leaf_count=17732 105 71 301 317 1242 670 10213 226 63 543 62 142 83 88 220 171 5670 550 2346 267 1884 95 222 52 235 98 289442 576 89 87 20437 77 848 85 80 383 102 55 493 75 56 4226 73 77 151 4843 255 77 1100 277 1351 165 463 90 118 210 5152 108 66 413 1833 169 74
internal_value=-3.31281 -3.32179 -2.4457 -3.32522 -2.88249 -2.56605 -3.32681 -3.21977 -3.33351 -2.80847 -3.23917 -3.19328 -2.99285 -2.81175 -2.55161 -2.56254 -3.33877 -2.40212 -3.04962 -3.06865 -3.21956 -3.34348 -2.74296 -3.22495 -2.10526 -2.87412 -3.34457 -3.12981 -3.08361 -3.17901 -3.28624 -3.30581 -3.10321 -3.2002 -3.27509 -2.80853 -2.92285 -2.03832 -3.21896 -2.99848 -2.49791 -3.23822 -2.61805 -3.14343 -2.82122 -3.19871 -3.1081 -3.2381 -3.2813 -3.05976 -2.01381 -2.8203 -3.01843 -2.59204 -2.20474 -3.347 -3.28291 -2.89153 -2.97181 -3.1625 -3.17674 -2.2499 -3.19987
internal_weight=12809.2 12677.9 131.298 12579.8 98.1087 47.461 12553.5 739.138 11814.3 63.5639 718.289 426.675 24.7475 27.4935 20.8489 26.307 11387.7 25.6629 114.449 112.347 399.181 10449.1 20.5099 397.045 67.7337 14.4756 10381.3 21.9338 37.901 50.6477 938.542 727.069 34.2397 31.6294 603.84 25.0865 7.01745 57.8685 211.473 19.2556 9.86511 382.57 5.49192 87.2605 7.72937 239.305 72.5137 166.792 383.519 11.1533 56.004 8.54298 20.5099 12.1026 6.98355 9997.73 185.437 10.7804 12.984 32.4091 67.8693 13.1874 64.6487
internal_count=377844 373971 3873 371077 2894 1400 370301 21803 348498 1875 21188 12586 730 811 615 776 335912 757 3376 3314 11775 308227 605 11712 1998 427 306225 647 1118 1494 27685 21447 1010 933 17812 740 207 1707 6238 568 291 11285 162 2574 228 7059 2139 4920 11313 329 1652 252 605 357 206 294912 5470 318 383 956 2002 389 1907
is_linear=0
shrinkage=1


Tree=1
num_leaves=64
num_cat=0
split_feature=308 344 14 27 27 17 21 10 112 23 383 29 26 29 62 8 14 312 29 8 46 88 144 85 390 4 13 14 26 333 4 111 1 365 45 104 0 1 19 26 28 370 9 8 14 13 86 29 0 409 12 3 9 9 373 95 1 26 9 74 395 212 17
split_gain=15520.3 3769.36 3334.13 2165.15 1647.81 1452.49 1236.09 1094.83 878.413 835.346 808.212 776.698 685.203 616.792 610.025 595.852 579.709 520.631 460.998 408.818 351.514 490.157 393.918 324.55 301.833 1979 299.195 279.736 373.34 278.34 323.371 277.505 257.542 251.038 244.432 249.937 237.197 234.6 668.387 234.332 231.046 221.415 322.78 220.289 214.851 212.896 207.109 202.814 252.278 199.93 199.647 199.355 308.82 231.158 197.909 171.656 166.058 164.952 191.186 154.874 152.824 151.684 150.647
threshold=1.5000000000000002 1.0000000180025095e-35 3.5000000000000004 1.0000000180025095e-35 1.0000000180025095e-35 2.5000000000000004 4.5000000000000009 82.500000000000014 2.5000000000000004 1.5000000000000002 19.000000000000004 12.500000000000002 26.500000000000004 3.5000000000000004 1.5000000000000002 1.5000000000000002 6.5000000000000009 2.5000000000000004 36.500000000000007 1.5000000000000002 1.5000000000000002 2.5000000000000004 1.0000000180025095e-35 1.0000000180025095e-35 -47.499999999999993 inf 1.5000000000000002 4.5000000000000009 74.500000000000014 4.5000000000000009 577.50000000000011 1.0000000180025095e-35 166.99500274658206 267.94999694824224 2.5000000000000004 2.5000000000000004 2583287.5000000005 237.19999694824222 7.5000000000000009 7.5000000000000009 5.5000000000000009 2702.170043945313 324.50000000000006 1.5000000000000002 1.5000000000000002 16.500000000000004 1.0000000180025095e-35 1.0000000180025095e-35 4880920.0000000009 193.50000000000003 18.500000000000004 3605.5000000000005 204.50000000000003 202.50000000000003 1.0000000180025095e-35 1.5000000000000002 335.00500488281256 1.0000000180025095e-35 495.00000000000006 1.5000000000000002 -4.4999999999999991 38.750000000000007 1.5000000000000002
decision_type=10 8 2 2 2 2 2 10 10 2 10 10 2 8 10 2 2 10 10 2 2 10 8 10 8 8 2 2 2 10 10 10 2 8 2 8 2 2 2 2 10 10 10 2 2 2 10 10 2 8 2 2 10 10 8 10 2 2 10 10 8 10 2
left_child=1 3 4 7 10 13 8 19 14 60 31 12 16 32 15 20 -7 24 26 45 21 22 37 -16 25 -15 -4 49 -29 57 -31 -2 -5 -25 35 41 -6 51 44 -10 -24 43 -43 56 47 -1 -37 -39 -49 -8 -23 52 53 -3 -38 -21 -26 58 -17 -56 -9 -59 -22
right_child=2 6 18 5 36 11 27 9 39 -11 -12 -13 -14 17 23 29 -18 -19 -20 55 62 50 40 33 34 -27 -28 28 -30 30 -32 -33 -34 -35 -36 46 54 38 -40 -41 -42 42 -44 -45 -46 -47 -48 48 -50 -51 -52 -53 -54 -55 59 -57 -58 61 -60 -61 -62 -63 -64
leaf_value=0.34949053016665704 0.47411600929090653 0.057382257707725773 0.11246953711270612 0.009318794979993137 -0.018082657644669108 0.11465633185451395 0.55967309003217269 0.10229995577377456 0.31285416844267955 0.39883238781216029 0.082022356369958249 -0.017223416821865633 0.041933199123276921 -0.0068576049671348685 0.35787657381138654 0.065867119735876833 0.4212288966685499 0.79707492071356945 0.093796434382510882 0.079009475574653695 0.014900810201750311 0.31686763729518591 0.22716485517606025 0.021239139714426897 -0.01030420964486873 1.3686581034064871 0.3925404202489291 0.40552924610291141 0.070249796153077637 0.070634716816402029 0.64144946001910719 0.28897762596102688 0.10944302416929037 0.40509990166834431 -0.042037722425404281 0.67076062370786405 0.34101413184675294 0.074240602808609543 1.1002723225946847 0.070765312003119224 0.68529909090562779 -0.051771428680882185 0.8748072951818906 -0.032173598739576544 0.070937970440627413 0.17468095962012034 -0.026193055591762399 0.14494222032161491 0.63085507492887238 0.043607266199982335 0.94756220046453521 0.046293492805127269 0.029359210303063474 0.53609725643811834 0.055609918305497087 0.35008977274145714 0.073749797870454048 -0.0014743416115815661 0.55501404564668666 0.26004705025203306 0.0097391203011108797 0.42521478650978245 0.1401529071136379
leaf_weight=40.440074373036623 34.811427559703588 3.6557897143065956 9.8897847309708578 327.72149385139346 84.052748240530491 25.443821530789137 2.1234340257942677 49.912612896412611 39.353118497878313 14.985689077526329 35.688065070658922 69.039661075919867 42.497538346797228 27.791538819670681 22.292966295033693 66.547940406948328 39.140976909548044 1.8847521506249894 14.553860697895287 63.541285943239927 132.25058490782976 2.5713094659149638 6.9795569330453855 21.076004158705476 812.69201173260808 2.8864793479442588 266.42839487269521 38.290138613432646 10.601836439222096 146.76375176385045 2.5238072201609603 48.355724975466728 79.880516476929188 5.3380014486610881 5079.5942237302661 2.3521419316530219 7.4867737963795662 6.3363286927342442 1.9961248189210881 13.399439070373772 4.5435308441519737 2.145198311656713 1.672845985740423 3614.4916545338929 25.209283143281937 30.593471109867096 1.9493196196854112 4.5639257431030256 6.4409301988780499 16.155189245939258 2.4506748504936695 113.38720763102174 12.290300507098435 8.128862973302601 97.05259757488966 6.4309112280607215 63.339753195643425 775.17213303223252 2.0594615563750258 10.241637535393236 418.50186621397734 2.0884512066841117 29.330849774181843
leaf_count=817 524 98 164 9493 2373 668 51 1400 675 237 889 1958 1116 832 361 1813 533 55 288 1568 3655 59 176 549 24674 88 3110 526 271 4000 70 745 2134 96 154624 67 168 172 55 330 123 65 51 110015 679 750 57 114 160 424 63 3060 333 134 2669 108 1927 22639 58 260 11889 42 742
internal_value=-0.000739637 -0.0128933 0.245761 -0.0232634 0.133776 -0.0287991 0.0607286 0.0671165 0.0510589 0.0313584 0.281061 0.113544 0.197854 -0.0313015 0.0435329 0.0372849 0.300452 -0.0338564 0.36807 0.189703 0.0923956 0.136958 0.124303 0.217386 -0.0340194 0.122564 0.382516 0.270438 0.332827 0.017341 0.0802847 0.366471 0.0289408 0.0988135 -0.0345209 -0.0260334 0.0457347 0.106354 0.206072 0.251362 0.407806 -0.026398 0.354202 -0.0267216 0.164123 0.274202 0.354918 0.299588 0.429338 0.103559 0.62464 0.074039 0.204714 0.387592 0.0924673 0.103924 -0.00422685 0.00623209 0.0805504 0.0751242 0.0196021 -0.000327854 0.037637
internal_weight=12951.4 12342.9 608.561 10818.9 317.689 10194.5 1523.92 624.406 1456.75 483.4 118.855 176.122 107.082 10018.4 1404 1355.29 64.5848 9610.8 290.872 141.006 360.135 198.554 193.532 48.707 9608.92 30.678 276.318 67.1706 48.892 995.156 149.288 83.1672 407.602 26.414 9578.24 4498.64 198.834 182.009 44.5466 52.7526 11.5231 4494.34 3.81804 4490.52 42.5505 71.0335 4.30146 17.3412 11.0049 18.2786 5.02198 137.462 24.075 11.7847 114.781 69.9722 876.032 845.868 68.6074 107.294 468.414 777.261 161.581
internal_count=377844 366654 11190 325126 7628 308357 41528 16769 40256 13526 2158 4275 2317 304082 39251 38245 1201 292455 3562 3243 9623 5226 5104 1006 292400 920 3274 1272 797 28622 4070 1269 11627 645 291480 136856 5470 4805 1180 1005 299 136732 116 136616 1125 1567 124 446 274 475 122 3625 565 232 3097 1676 26601 24552 1871 2929 13289 22681 4397
is_linear=0
shrinkage=0.05


Tree=2
num_leaves=64
num_cat=0
split_feature=308 344 27 14 17 17 27 10 333 29 23 29 27 112 13 374 312 8 14 45 390 4 34 103 24 95 30 34 63 358 8 222 212 37 330 11 0 363 127 27 14 370 31 26 348 15 8 1 0 40 428 1 26 117 30 104 41 34 33 1 29 14 25
split_gain=11459 3289.95 1917.16 1774.37 1239.84 810.093 791.915 749.651 611.957 576.05 555.818 537.643 401.826 370.119 344.934 331.468 301.261 300.724 293.333 268.502 285.576 375.192 260.022 256.555 270.855 225.17 221.41 257.461 218.991 210.152 204.523 193.268 189.526 185.445 214.659 163.361 166.801 157.652 217.583 156.948 169.588 154.602 425.066 154.106 147.918 139.723 138.887 138.844 138.37 138.02 145.389 214.86 134.358 134.269 133.168 131.332 130.067 121.512 120.235 117.085 372.07 115.833 115.625
threshold=1.5000000000000002 1.0000000180025095e-35 1.0000000180025095e-35 2.5000000000000004 2.5000000000000004 3.5000000000000004 1.0000000180025095e-35 87.500000000000014 3.5000000000000004 3.5000000000000004 1.5000000000000002 12.500000000000002 25.500000000000004 2.5000000000000004 1.5000000000000002 1.5000000000000002 3.5000000000000004 1.5000000000000002 8.5000000000000018 2.5000000000000004 -47.499999999999993 583.50000000000011 211.77083587646487 1.5000000000000002 1.5000000000000002 3.5000000000000004 inf 49.812498092651374 1.5000000000000002 174.46679687500003 1.5000000000000002 1.5000000000000002 147.50000000000003 25.500000000000004 2.5000000000000004 85.500000000000014 2477320.0000000005 164.90000152587893 2.5000000000000004 21.500000000000004 4.5000000000000009 1616.4949951171877 405.50000000000006 1.5000000000000002 2.5000000000000004 3.5000000000000004 1.5000000000000002 335.00500488281256 2384602.0000000005 253.50000000000003 1.0000000180025095e-35 149.95999908447268 2.5000000000000004 1.5000000000000002 476.50000000000006 2.5000000000000004 176.50000000000003 6.6041665077209482 284.50000000000006 361.98500061035162 496.50000000000006 3.5000000000000004 13.500000000000002
decision_type=10 8 2 2 2 2 2 8 10 8 2 10 2 10 2 10 10 2 2 2 8 8 10 8 2 10 8 8 10 10 2 8 10 8 10 8 2 10 10 2 2 10 10 2 8 2 2 2 2 8 2 2 2 10 8 8 10 8 10 2 10 2 2
left_child=1 2 7 6 9 8 15 10 17 29 49 12 18 25 62 48 19 33 43 20 21 -11 31 59 -25 28 -9 -28 37 -4 47 58 -21 34 -3 44 -37 -10 -39 40 -7 55 -43 -6 -30 -34 -29 57 -2 50 -1 -52 -24 -35 -50 -32 -15 61 -16 -19 -61 -22 -5
right_child=3 5 4 14 11 39 -8 26 13 16 -12 -13 -14 56 22 -17 -18 23 -20 32 30 -23 52 24 -26 -27 27 46 35 -31 41 -33 45 53 -36 36 -38 38 -40 -41 -42 42 -44 -45 -46 -47 -48 -49 54 -51 51 -53 -54 -55 -56 -57 -58 -59 -60 60 -62 -63 -64
leaf_value=0.028151323618469518 0.1164388848349879 0.10079335594649125 0.0070100503779842952 0.0023245605460697097 0.3473353362855518 0.049865413980377714 0.020359509982564056 0.0052981193285826962 0.040837215089147644 -0.0047539736949889378 0.27917061672762927 -0.016631805412271813 0.028583626431603476 0.24217482879369068 0.27863063578647612 0.0077249724103978347 0.56612659708503565 -0.0035609565168575421 0.29540876526573029 -0.041835381192538268 0.073688897617874755 0.40632648478807765 0.20541223155587207 0.022779753729045962 0.22541339322115161 0.48967861154961662 0.32676776403832275 0.1960806808699016 0.019665961755458924 0.090405208907450352 -0.031679625037104968 -0.019391727184392929 0.074468490360479922 0.040227122589606451 0.347760378031924 0.047490207835409338 0.30587594824804731 0.10210200059500135 0.49134016308619216 0.051875359101836764 0.29515640434341189 -0.038459274443915947 0.68078879839599105 0.060825226318512039 0.36921150171834261 0.54309078333441163 0.084458794679756935 0.064827668093566868 0.08901973913847025 0.01288822443228887 0.090058409150651483 0.56089253500013603 -0.020741233019261909 0.17399217173883444 0.29075465547068663 0.22288220542842382 -0.023635297715256232 -0.012509627663667217 0.15006756805817312 0.051000846155456914 0.8072209013208671 0.47865972380732524 0.34413247574093814
leaf_weight=13.076116878539324 20.179194588214159 37.882266823202372 319.99411459639668 17.777896728366617 5.5954178348183623 8.2770930565893632 165.54338489845395 21.480375077575445 260.73905540257692 14.886047292500736 21.411180291324854 67.949005078524351 40.814387727528811 49.325453329831362 391.98546628654003 20.000904835760593 2.0960418283939353 684.37656355649233 51.062159985303879 4890.9354325868189 16.737767163664106 8.8508370742201787 15.232402544468643 41.955286923795938 27.171414002776146 3.3024546504020682 23.975401852279902 62.544404935091734 21.403361167758707 98.887623950839043 3502.9422981999815 5.7436722591519347 5.9298049956560117 218.78525248542428 11.460328843444584 8.4215587265789491 24.177982803434134 80.843250751495361 3.7571826688945285 10.983656492084263 47.394187565892935 7.2951936870813352 2.8593053445219994 29.110661923885345 3.5250501856207839 2.173674363642931 50.263606566935778 68.106681071221828 9.4034669771790487 461.85322878882289 5.9729287847876549 4.0769189521670341 11.545117273926733 20.519401252269745 62.898172631859779 5.0740410685539237 5.0757675729691973 787.40124877169728 19.070856008678675 44.722861733287573 1.6879435628652562 1.9739784784615029 2.8741622455418101
leaf_count=338 329 938 9115 334 87 185 4489 460 6782 452 251 1958 1034 661 3842 503 30 20013 496 154826 508 83 193 1077 436 50 373 1109 488 2512 109869 102 172 5498 226 175 458 1904 59 252 464 206 51 700 43 34 1122 1934 141 12862 152 102 190 370 791 105 97 24141 240 1302 50 44 36
internal_value=-0.000932798 -0.0125273 -0.0226622 0.189812 -0.0281646 0.0539314 0.0899184 0.0595494 0.0465877 -0.0306619 0.0298635 0.0968216 0.157723 0.0949007 0.249639 0.192291 -0.0332406 0.0261464 0.219176 -0.0333755 -0.0244345 0.148527 0.258938 0.0103598 0.102428 0.078497 0.154534 0.17797 0.0751264 0.0266976 -0.0253692 0.268641 -0.0414351 0.0698952 0.158154 0.165447 0.239126 0.0600805 0.119388 0.224608 0.258687 -0.0307475 0.164067 0.107017 0.0690941 0.200172 0.146346 -0.00372521 0.232207 0.0188569 0.138058 0.281062 0.107906 0.0516969 0.264517 -0.0313114 0.217374 -0.00951708 0.272666 0.00165084 0.0785043 0.116411 0.0498942
internal_weight=12953.4 12211.1 10595.3 742.255 9930.68 1615.79 278.025 664.654 1549.13 9736.14 506.39 194.532 126.583 460.571 464.23 112.482 9317.26 1088.56 85.7682 9315.17 4416.13 23.7369 443.578 799.914 69.1267 406.17 158.264 136.783 402.867 418.882 4392.39 416.8 4899.04 288.647 49.3426 57.528 32.5995 345.339 84.6004 66.6549 55.6713 3518.17 10.1545 34.7061 24.9284 8.10348 112.808 874.22 92.4808 484.979 23.126 10.0498 26.7775 239.305 72.3016 3508.02 54.4012 806.113 411.056 730.787 46.4108 18.7117 20.6521
internal_count=377844 366654 325126 11190 308357 41528 6253 16769 40627 304082 13705 4275 2317 10717 4937 1764 292455 29910 1283 292425 137393 535 4567 22878 1513 9959 3064 2604 9909 11627 136858 4184 155032 7032 1164 1164 633 8745 1963 901 649 110231 257 787 531 206 2231 26627 1261 13454 592 254 383 5868 932 109974 758 24693 4082 21365 1352 552 370
is_linear=0
shrinkage=0.05


Tree=3
num_leaves=64
num_cat=0
split_feature=308 344 27 14 21 27 21 17 29 14 333 14 26 0 193 46 8 45 8 390 137 26 26 125 70 8 24 4 25 26 0 26 237 390 202 34 117 62 336 8 183 5 392 311 289 237 37 360 29 0 370 31 26 337 4 137 1 88 1 370 351 7 9
split_gain=9026.01 2911.18 1711.1 1113.57 1099.16 682.093 594.727 585.961 551.368 496.999 495.171 377.566 501.097 369.043 281.896 280.063 263.019 262.579 249.757 272.838 242.471 212.406 209.588 203.772 262.908 194.851 229.298 231.054 183.008 178.546 174.572 159.194 159.133 157.873 151.843 151.669 148.454 141.159 140.081 143.72 137.368 133.799 143.236 140.986 186.124 153.161 132.259 152.883 131.534 129.833 128.768 180.72 128.402 125.683 121.786 120.475 116.299 114.271 110.746 109.332 109.279 158.409 108.994
threshold=1.5000000000000002 1.0000000180025095e-35 1.0000000180025095e-35 3.5000000000000004 3.5000000000000004 1.0000000180025095e-35 4.5000000000000009 1.0000000180025095e-35 4.5000000000000009 1.5000000000000002 3.5000000000000004 5.5000000000000009 25.500000000000004 2411458.0000000005 1.5000000000000002 1.5000000000000002 1.5000000000000002 2.5000000000000004 1.5000000000000002 -47.499999999999993 2.5000000000000004 24.500000000000004 1.5000000000000002 1.5000000000000002 1.0000000180025095e-35 1.5000000000000002 1.5000000000000002 566.50000000000011 2.5000000000000004 5.5000000000000009 2583287.5000000005 7.5000000000000009 1.5000000000000002 -44.499999999999993 1.5000000000000002 101.60416793823244 1.5000000000000002 1.5000000000000002 1.0000000180025095e-35 1.5000000000000002 472.92500305175787 149.50000000000003 1.0000000180025095e-35 1.5000000000000002 1.0000000180025095e-35 1.5000000000000002 25.500000000000004 88.909999847412124 2.5000000000000004 5334088.0000000009 600.50000000000011 355.50000000000006 1.0000000180025095e-35 1.0000000180025095e-35 583.50000000000011 1.5000000000000002 664.14498901367199 2.5000000000000004 335.00500488281256 100.29064941406251 1.5000000000000002 225.50000000000003 122.50000000000001
decision_type=10 8 2 2 2 2 2 2 8 2 10 2 2 2 10 2 2 2 2 8 10 2 2 10 10 2 2 10 2 2 2 2 10 8 10 10 10 8 10 2 10 10 10 10 10 10 8 10 10 2 10 10 2 10 8 10 2 10 2 8 10 10 10
left_child=1 2 7 5 8 14 10 62 22 13 16 34 -13 -9 -2 25 36 18 19 54 -14 -5 38 52 -25 31 60 29 -17 -28 -7 40 -19 -15 -6 -34 46 -31 39 56 -12 -32 43 -43 45 -45 47 -3 -30 -49 -20 -52 59 -8 -10 -35 -4 -23 -21 -18 -27 -62 -1
right_child=3 6 4 21 11 30 53 9 17 -11 15 12 20 33 -16 28 23 32 50 58 -22 57 -24 24 -26 26 27 -29 48 37 41 -33 35 55 -36 -37 -38 -39 -40 -41 -42 42 -44 44 -46 -47 -48 49 -50 -51 51 -53 -54 -55 -56 -57 -58 -59 -60 -61 61 -63 -64
leaf_value=0.15833571224063495 0.19630314562230075 0.025126558936473361 0.18499893220242006 0.21949572916226756 -0.0027048755153644363 -0.019161396822249196 0.20251100111838427 0.00018558038992244602 -0.0036293893535343799 0.22784050360956015 0.14090035706580131 0.22295854333673948 0.0090908177612933003 0.26021383135727316 0.026997672474037705 0.0034448605346021062 0.056681213788374131 -0.041650350059815461 -0.031103137631716855 -0.0095780587704278851 0.54859962737273105 0.046385644051320042 0.0015518866194629399 0.27027644128646638 -0.016554058600786049 0.030647618282465979 0.19368471028453718 0.50488598081015235 0.096464937142461821 0.031403105867705748 -0.044948443810121863 0.041238421442715285 0.38875627872497032 0.092862307980726755 0.31416425588072094 0.01501780607761289 0.17391722025704551 0.2565548510772484 0.016324643836559821 0.073789914027013265 0.27142193409609355 0.049131511906675751 0.4805919514935787 0.031628514677644257 0.40080686541261995 0.30658865592083173 0.034752475947339823 0.051716260015435112 0.47928013478128118 0.27283218613986976 0.0010833364769158144 0.28093310701955837 -0.0036819340730829043 0.069709562489647936 0.28687467918522708 0.3709622973549947 0.55237346469000226 0.26852494214653633 0.055317979470102911 0.4096535531187675 -0.039884459892036747 0.38291544147616458 -0.00087119734244448215
leaf_weight=11.128570489585398 147.35501336678863 22.576718311756849 21.297384284436706 420.10488458350301 105.25077198445797 86.534388281404972 72.075206283479929 116.10359920933843 5.1951037161052254 60.136519122868776 49.160749115049839 72.41452257707715 58.625650625675917 16.577050540596247 29.50952872261405 121.16749483346939 65.115627758204937 4673.1922228783369 3365.9881251398474 786.91671580821276 2.1592945754528037 28.163669422268867 339.00878541730344 16.504555575549606 15.484021056443451 138.70590562745929 48.237134359776974 4.1100143715739241 6.6515746079385263 49.3056685552001 20.638199519366026 21.295065712183714 4.0578325763344756 176.73068868368864 3.9215960502624503 8.2003217674791795 27.197069671005011 8.1058579050004465 57.033283770084381 52.457394218072295 34.17023928835988 78.117453582584858 2.3407208919525138 17.84690701961518 7.0400870479643336 7.0713837184011927 223.6660822853446 10.045299377292396 3.3862085975706577 19.576247945427895 22.697880078107122 7.7348593529313794 702.20990862697363 23.665941916406155 11.807279467582701 3.9820814430713645 2.3966838642954817 7.2872167676687232 71.732667483389378 2.2703376151621333 3.7627089582383615 5.3873067907989025 316.18886787816882
leaf_count=238 1605 529 564 3134 3013 2373 834 2871 159 641 849 772 1498 251 553 3110 1620 153845 108583 24280 42 373 9371 182 417 3129 851 63 135 1135 526 478 70 3939 64 226 432 87 1542 1424 464 1832 48 431 135 125 5419 211 85 334 711 139 20492 438 83 47 51 55 1920 49 77 108 8782
internal_value=-0.00102988 -0.0121353 -0.0220594 0.156253 -0.0275259 0.0949779 0.0486397 0.0533812 -0.0302282 0.0961783 0.041388 0.0776093 0.134107 0.0709139 0.168055 0.0830306 0.0227862 -0.0330041 -0.0240389 -0.000229171 0.0282561 0.209578 0.0224311 0.00778441 0.131437 0.105701 0.0823309 0.137081 0.0204412 0.122772 0.0361192 0.163243 -0.0411784 0.112537 0.00867743 0.138737 0.0624652 0.063192 0.0755772 0.119954 0.194421 0.0720718 0.0935552 0.085325 0.173795 0.109657 0.0514773 0.123142 0.225606 0.197847 -0.0301774 0.0722106 0.00264476 0.169684 0.198111 0.0989904 0.222159 0.0920482 -0.00415656 0.0685734 0.041688 0.20905 0.00454173
internal_weight=12918.8 12066.8 10372.9 852.009 9672.09 396.454 1693.83 700.847 9429.72 373.53 1598.09 242.372 133.199 313.393 176.865 493.446 1104.65 8957.52 4272.07 875.652 60.7849 455.556 472.194 801.584 31.9886 362.241 257.615 109.759 131.205 105.649 219.589 104.626 4685.45 197.29 109.172 12.2582 303.061 57.4115 133.185 76.1515 83.331 133.055 112.417 110.076 31.9584 24.9183 275.864 52.1983 10.0378 29.6215 3396.42 30.4327 769.596 95.7411 17.0024 180.713 23.6941 35.4509 858.649 67.386 147.856 9.15002 327.317
internal_count=377844 366654 325126 11190 308357 7628 41528 16769 302968 7749 40256 5389 2312 7108 2158 10571 29685 290016 135875 26442 1540 3562 12952 22760 599 7241 5450 2136 3330 2073 5470 1791 154141 4237 3077 296 6925 1222 3581 2039 1313 3097 2571 2523 691 556 6493 1074 220 545 109433 850 22161 1272 242 3986 615 428 26200 1669 3314 185 9020
is_linear=0
shrinkage=0.05


Tree=4
num_leaves=64
num_cat=0
split_feature=308 344 27 21 14 29 17 17 358 14 27 26 0 29 45 8 390 373 1 111 383 14 14 103 2 365 18 137 222 26 312 19 15 62 28 26 36 368 7 8 27 14 312 24 70 22 248 26 370 31 34 137 0 18 7 394 1 0 41 6 119 295 421
split_gain=7371.99 2589.66 1538.16 980.231 814.002 505.745 470.639 462.504 450.16 413.947 403.109 380.379 355.611 320.249 256.241 227.257 222.124 208.173 180.377 173.703 168.486 165.524 164.663 162.518 154.113 151.278 141.015 171.878 138.213 137.42 138.753 133.655 205.277 278.643 132.332 125.916 200.269 285.046 129.548 123.001 122.654 121.707 121.365 120.258 141.693 215.65 117.703 117.246 115.177 120.893 113.676 113.296 111.092 109.796 109.265 105.841 98.8327 98.0705 118.917 97.5087 96.7974 96.4624 95.6282
threshold=1.5000000000000002 1.0000000180025095e-35 1.0000000180025095e-35 2.5000000000000004 2.5000000000000004 4.5000000000000009 1.5000000000000002 1.0000000180025095e-35 342.00999450683599 5.5000000000000009 1.0000000180025095e-35 13.500000000000002 2411458.0000000005 11.500000000000002 2.5000000000000004 1.5000000000000002 -47.499999999999993 2.5000000000000004 75.002998352050795 1.5000000000000002 19.000000000000004 4.5000000000000009 1.5000000000000002 1.5000000000000002 2.5000000000000004 251.92500305175784 1.0000000180025095e-35 3.5000000000000004 1.0000000180025095e-35 1.5000000000000002 3.5000000000000004 3.5000000000000004 1.5000000000000002 1.0000000180025095e-35 61.500000000000007 8.5000000000000018 527.50000000000011 972.50000000000011 115.50000000000001 1.5000000000000002 1.0000000180025095e-35 2.5000000000000004 1.5000000000000002 1.5000000000000002 1.0000000180025095e-35 2.5000000000000004 1.5000000000000002 26.500000000000004 600.50000000000011 355.50000000000006 51.062498092651374 2.5000000000000004 9122340.5000000019 13.500000000000002 103.00000000000001 1.0000000180025095e-35 335.00500488281256 4237237.5000000009 3.5000000000000004 1.5000000000000002 1.0000000180025095e-35 1.5000000000000002 28.000000000000004
decision_type=10 8 2 2 2 8 2 2 10 2 2 2 2 8 2 2 8 10 2 10 10 2 2 10 2 8 2 10 8 2 10 2 2 10 10 2 10 10 10 2 2 2 10 2 8 2 10 2 10 10 10 10 2 2 10 10 2 2 10 2 8 8 10
left_child=1 2 7 5 10 18 8 60 26 25 20 62 41 19 15 16 -7 28 -4 52 -2 24 50 35 40 29 27 31 -6 -5 -31 54 33 -33 -26 43 38 53 -37 57 -8 -9 -30 -15 45 -45 -16 -23 -17 -50 55 -13 -10 -38 -3 -14 -18 -20 59 -59 -1 -12 -11
right_child=4 6 3 9 17 14 21 12 13 11 61 51 22 23 46 48 56 -19 39 -21 -22 47 -24 -25 34 -27 -28 -29 42 30 -32 32 -34 -35 -36 36 37 -39 -40 -41 -42 -43 -44 44 -46 -47 -48 -49 49 -51 -52 -53 -54 -55 -56 -57 -58 58 -60 -61 -62 -63 -64
leaf_value=0.023000347516973111 0.15949878476942672 0.091012508251833144 -0.0085334772662584418 0.16885314602971305 0.18330097629771711 0.16811371707200404 0.21972118597902096 0.0033824925620875254 0.070703735080711969 0.17555384459012097 -0.0057990161320693959 0.022693482773176739 0.090289256092681597 0.034243794032527718 -0.041181155592878355 -0.03070913465158745 -0.010094851372412665 0.064309386654193904 0.036877787463445152 0.20034469886530104 0.03592812556098765 0.19775436473737459 0.19247891278667237 0.1591135321060243 0.52793494305396349 0.45268785730626171 -0.022905832221094026 0.31176508430010497 0.05336727092869497 -0.017209025130677517 0.30264130804504308 0.7229960543610664 0.064107852741230764 0.020369108573654312 0.073305692471252501 0.13949226024395281 -0.02289079663015995 0.6803946148375406 -0.015802318870853507 0.026542558907430652 0.023472096984720983 0.20006850814038032 0.20384827481635251 0.15994278307875265 0.089050681085459424 0.70607339309800743 0.39511604079605844 0.054975964827003621 0.0010281043499131123 0.21211390433933419 0.019669383769868598 0.28372278130123968 0.15886804668641408 0.38726835963765804 0.010722679426187534 0.17719212752525182 0.04987624171568189 0.5123680638202196 0.023278354645327175 0.1799365333085437 -0.035038368131788615 0.078120744866240224 0.34840279015318232
leaf_weight=222.68187464028597 112.36957528814673 45.34268144518137 255.85359433665872 11.4195041321218 516.06637787632644 19.012786097824574 9.140087924897669 121.73350809887052 140.55123183503747 68.439077980816364 126.17642749100924 70.927427191287279 130.21953586861491 107.22989363968372 4476.5111095178872 3244.19534782134 765.01984506472945 45.921363417059183 30.831474810838699 47.234473988413811 36.55990556627512 72.818604338914156 56.548208873718977 27.251442961394787 3.2623738199472418 1.8743020556867112 202.75935986638069 5.1555626876652232 40.33174167573452 161.56704409047961 3.4633822366595259 2.9025291800498954 52.194087140262127 2.7459661848843098 3.1423919163644314 14.480267282575367 6.6661377213895303 2.5203426182270041 185.06644580513239 147.42845095694065 61.755398094654083 8.4084493257105333 20.064826793968678 6.989398926496504 47.706492315977812 2.4381148591637611 1.5463720336556424 17.916219588369131 22.72079100087285 9.6698656193912012 39.246278937906027 4.4157652147114268 47.909491006284952 2.1604139097034931 647.19540913775563 47.933852475136518 75.47804356738925 2.3873081468045738 12.580220002681015 29.02331156656146 106.05526825413108 46.99739895015955 9.0613365732133371
leaf_count=6120 1002 973 7233 224 3665 235 166 2946 2893 575 3384 1698 2505 2642 153226 107827 23897 599 751 566 762 576 503 315 55 34 5667 72 505 4842 29 76 1308 69 57 225 173 48 5002 3833 1417 63 168 140 1013 53 20 319 711 139 855 54 890 54 16759 877 1920 47 320 652 2900 1105 90
internal_value=-0.00109326 -0.0117469 -0.0214607 -0.0268869 0.133371 -0.0299646 0.0441632 0.0483156 0.0357857 0.0576101 0.0688478 0.117991 0.0841428 0.0683198 -0.0327427 -0.0237697 -0.000886423 0.166764 0.0200901 0.114605 0.129164 0.123758 0.116472 0.0412165 0.069993 0.005857 0.0141187 0.0240548 0.174925 0.00111063 -0.0104965 0.022078 0.0950943 0.38142 0.304879 0.0326548 0.00708557 0.211414 -0.00453324 0.0530415 0.0487732 0.0160903 0.10336 0.0654623 0.124054 0.301181 -0.0410305 0.169562 -0.0297724 0.0640454 0.0967015 0.0379921 0.0931164 0.077501 0.0159795 0.113671 -0.00470935 0.105254 0.153177 0.205202 0.00427623 0.0169758 0.195763
internal_weight=12865.3 11920.8 10156.3 9423.43 944.488 9092.26 1764.53 732.827 1596.5 331.168 322.103 152.844 404.09 638.204 8614.15 4136.1 859.511 622.384 478.104 235.695 148.929 168.035 273.948 402.509 77.3003 178.324 958.296 755.536 576.463 176.45 165.03 750.381 57.8426 5.6485 6.40477 375.258 210.894 11.3469 199.547 222.251 70.8955 130.142 60.3966 164.364 57.134 9.42751 4478.06 90.7348 3276.59 32.3907 217.4 75.3432 188.461 8.82655 692.538 178.153 840.498 74.8223 43.9908 31.4106 328.737 173.174 77.5004
internal_count=377844 366654 325126 308357 11190 300811 41528 16769 38938 7546 6253 2417 7749 14014 287975 134729 26052 4937 12836 4349 1764 2590 4740 9665 1695 5129 24924 19257 4338 5095 4871 19185 1453 145 112 9350 5502 275 5227 5603 1583 3009 673 3848 1206 193 153246 895 108677 850 4237 1752 3783 227 17732 3382 25817 1770 1019 699 9020 4489 665
is_linear=0
shrinkage=0.05


Tree=5
num_leaves=64
num_cat=0
split_feature=308 344 27 21 14 29 2 27 17 331 46 0 29 1 45 8 137 1 390 23 26 193 26 14 34 195 346 26 181 37 9 28 94 132 95 0 239 15 7 370 31 8 237 26 255 95 76 0 7 344 34 9 29 357 351 4 5 392 259 1 112 13 196
split_gain=5873.89 2353.59 1442.26 903.899 682.184 543.46 450.138 433.911 403.896 398.541 280.038 267.191 260.703 235.756 231.155 243.384 226.421 217.612 191.891 189.734 174.875 169.865 159.502 154.123 152.269 151.183 144.189 172.766 135.623 135.09 133.737 154.212 128.097 122.129 119.808 117.785 117.253 116.849 115.99 113.929 117.949 112.435 112.284 112.268 111.101 107.043 105.972 105.72 103.594 115.279 95.639 94.8034 93.9305 97.613 89.3236 98.133 86.3195 99.0622 92.7889 85.7051 84.6552 83.8803 82.5379
threshold=1.5000000000000002 1.0000000180025095e-35 1.0000000180025095e-35 3.5000000000000004 3.5000000000000004 4.5000000000000009 1.5000000000000002 1.0000000180025095e-35 1.5000000000000002 1.0000000180025095e-35 1.5000000000000002 2411458.0000000005 240.50000000000003 141.004997253418 2.5000000000000004 1.5000000000000002 1.5000000000000002 279.97500610351568 -47.499999999999993 1.5000000000000002 1.5000000000000002 2.5000000000000004 21.500000000000004 4.5000000000000009 29.687499046325687 1.0000000180025095e-35 2.5000000000000004 20.500000000000004 433.42500305175787 19.500000000000004 473.00000000000006 345.50000000000006 3.5000000000000004 1.5000000000000002 2.5000000000000004 2583287.5000000005 1.5000000000000002 7.5000000000000009 225.50000000000003 1616.4949951171877 405.50000000000006 1.5000000000000002 1.5000000000000002 2.5000000000000004 12.839250087738039 3.5000000000000004 1.5000000000000002 4924404.0000000009 109.00000000000001 7.5000000000000009 319.93750000000006 123.50000000000001 1.0000000180025095e-35 372.00109863281256 1.0000000180025095e-35 454.50000000000006 149.50000000000003 1.0000000180025095e-35 39.967750549316413 335.00500488281256 1.5000000000000002 1.5000000000000002 1.5000000000000002
decision_type=10 8 2 2 2 8 2 2 2 10 2 2 10 2 2 2 8 2 8 2 2 10 2 2 10 8 10 2 10 10 10 8 10 10 10 2 10 2 10 10 10 2 10 2 10 10 8 2 8 10 10 8 10 10 8 8 10 8 10 2 8 2 8
left_child=1 2 6 5 7 20 11 21 9 17 33 62 16 41 15 18 34 26 -7 -8 52 36 44 -10 -18 -15 45 30 -19 47 31 51 59 37 -5 -9 -2 43 -39 -17 -41 -13 -16 46 -6 48 54 -30 49 -3 -44 -28 -4 60 55 -11 -37 -58 -59 -20 -54 -25 -1
right_child=4 8 3 12 22 14 19 35 23 10 -12 13 -14 25 42 39 24 28 32 -21 -22 -23 -24 61 -26 -27 27 -29 29 -31 -32 -33 -34 -35 -36 56 -38 38 -40 40 -42 -43 50 -45 -46 -47 -48 -49 -50 -51 -52 -53 53 -55 -56 -57 57 58 -60 -61 -62 -63 -64
leaf_value=-0.019653556933470023 0.10397561823310056 0.033720951153365479 0.038615935977821383 0.02287033924264352 0.16479360520421382 0.14507745291553562 0.0037084500782500356 -0.023432842681758825 0.059192552244630561 0.036789821070670352 -0.0060301973363926873 0.13340687357789105 -0.040598480528758293 0.40385972320930119 -0.040582978706067876 -0.030551293117570003 0.17853098629860942 0.046777578351916309 -0.010042446277952416 0.16757712790372173 0.0025230831194516037 -0.023318568145894471 0.05992114132203722 0.00053792393523196559 0.041642763729302285 0.15943297189898273 0.18550840361491022 -0.029007421106658687 0.090934536670294719 0.0083247988365609954 0.34423823327639536 0.46585095873481031 0.36109060561057782 0.16758512782820745 0.19733698990227985 -0.045132877618896783 0.1834991254204493 0.045595480650943876 0.37161828762173682 -0.031419810131528725 0.2554057620153985 0.059977279948578703 0.23490129623711106 0.04456860769368183 0.078330200813201051 0.19643373357370139 0.25770297116347235 0.2818152414436032 0.0010438064701975276 0.20362679991561128 -0.029854686185964131 0.027747690455083851 0.066087781242735039 0.28304422073137497 0.25888525608341884 0.15072768281492815 0.036524903837960594 0.10017659139822679 0.32195097225084446 0.04467276572985511 0.28041128791390729 0.16571272757383723 0.071417666838487673
leaf_weight=56.677496042102575 130.77849394828081 50.735637836158276 96.218299221247435 103.77431547641754 479.68346581608057 22.177360363304615 403.18856251239777 90.383367780596018 79.198624771088362 47.778723269701004 75.738316956907511 114.02159306779504 48.347318682819605 10.663707338273525 4325.7241312712431 3190.724046504125 75.194749284535646 147.38195974007249 767.60801411792636 18.473508611321449 349.13728419877589 19.234821934252977 44.947770278900862 8.3735124357044679 27.835214871913195 15.55299099907279 13.804319404065607 26.14726261049509 12.129494193941357 12.270004507154225 6.2975149974226943 2.6999181173741809 2.3970172740519038 57.022394176572561 10.870977614074944 20.947339419275522 71.801007699221373 4.5314413122832757 6.8553370758891106 7.2333892919123155 7.1047936379909515 96.042500201612711 6.8507112972438318 117.69394299387932 40.272202540189028 7.3651693910360327 11.766986247152088 18.046473056077957 958.15306772664189 12.428872391581534 6.7935766372829676 30.703461248427629 37.173788353800774 8.0014779157936555 7.8315191380679599 31.264213811606169 91.239368584007025 30.927923560142517 5.5650888085365287 78.929058451205492 5.2592143341898909 93.642166201025248 44.343862935900688
leaf_count=1492 1320 1072 2385 2273 2768 250 10733 2441 1651 1004 1953 1517 1428 176 153886 108954 958 3361 24145 127 9494 340 451 98 575 244 88 742 258 288 67 60 40 709 81 530 513 96 75 209 53 1639 97 2333 335 65 156 246 25054 124 197 727 918 123 130 616 1881 614 83 1918 128 809 782
internal_value=-0.00129903 -0.0112949 -0.0209135 -0.0263916 0.113455 -0.0291028 0.0453274 0.0683127 0.0406513 0.0329079 0.0794186 0.0883806 0.0644287 0.117479 -0.0320998 -0.0235498 0.0877561 0.0199925 -0.00011446 0.0108877 0.0217687 0.118679 0.150285 0.111526 0.141548 0.258854 0.0115204 0.0763304 0.069458 0.14821 0.127808 0.0989357 -0.00390742 0.102147 0.0394137 0.0215805 0.132161 0.0857608 0.241875 -0.0299194 0.110707 0.0998344 -0.0401313 0.0775438 0.158097 0.0065021 0.116888 0.205089 0.00513242 0.0671533 0.103078 0.076678 0.0675869 0.122857 0.0978149 0.0818562 0.0489444 0.0643725 0.133997 -0.00494093 0.0926514 0.152155 0.0203226
internal_weight=12802 11776.2 9936.32 9177.35 1025.78 8911.33 758.964 460.877 1839.86 1658.65 360.483 337.302 266.023 236.281 8415.54 4076.17 217.675 1298.16 871.111 421.662 495.79 221.814 564.903 181.214 103.03 26.2167 1108.34 79.6525 189.828 42.446 53.5052 47.2077 848.934 284.745 114.645 239.063 202.58 227.722 11.3868 3205.06 14.3382 210.064 4339.37 216.335 519.956 1028.68 98.6414 30.176 1021.32 63.1645 13.6443 44.5078 146.653 50.4345 86.8745 79.0429 148.68 127.732 36.493 846.537 42.433 102.016 101.021
internal_count=377880 366604 324822 308112 11276 302797 16710 7722 41782 39224 7072 5850 5315 3576 289749 135569 3887 32152 26353 10860 13048 2173 3554 2558 1533 420 27999 1684 4153 792 942 875 26103 5119 2354 5549 1833 4410 171 109216 262 3156 154180 4239 3103 26315 1906 504 26250 1196 294 815 3554 1169 1750 1620 3108 2578 697 26063 1046 907 2274
is_linear=0
shrinkage=0.05


Tree=6
num_leaves=64
num_cat=0
split_feature=308 344 27 21 14 29 2 8 27 14 26 117 45 8 0 26 12 62 390 363 24 23 36 333 374 1 149 24 26 47 23 111 202 43 46 11 31 0 370 24 30 95 34 94 3 41 7 31 362 365 14 12 45 371 365 9 321 70 69 3 11 133 39
split_gain=5011.59 2110.93 1304.69 820.086 539.594 496.914 358.15 346.429 342.836 290.651 276.01 258.673 217.98 209.4 199.622 177.542 169.87 166.288 161.285 160.319 171.201 154.84 144.988 152.094 139.848 139.072 132.45 122.642 120.734 114.984 111.597 123.689 111.567 106.491 156.917 197.226 104.839 101.624 100.259 93.8278 93.0751 92.8483 92.2407 97.1572 89.0472 88.2801 87.6042 86.1188 84.8577 84.0488 84.0178 101.549 91.5207 83.5472 82.1798 80.457 80.2739 80.0202 129.119 79.7826 90.1437 77.5312 77.0963
threshold=1.5000000000000002 1.0000000180025095e-35 1.0000000180025095e-35 2.5000000000000004 3.5000000000000004 6.5000000000000009 1.5000000000000002 1.5000000000000002 1.0000000180025095e-35 4.5000000000000009 14.500000000000002 1.5000000000000002 2.5000000000000004 1.5000000000000002 2411458.0000000005 1.5000000000000002 1.0000000180025095e-35 1.5000000000000002 -47.499999999999993 204.47499847412112 2.5000000000000004 1.5000000000000002 53.500000000000007 8.5000000000000018 1.5000000000000002 141.004997253418 1.0000000180025095e-35 1.5000000000000002 1.5000000000000002 1.0000000180025095e-35 1.5000000000000002 1.5000000000000002 1.5000000000000002 1.0000000180025095e-35 1.0000000180025095e-35 202.50000000000003 51.500000000000007 2583287.5000000005 1616.4949951171877 1.5000000000000002 451.50000000000006 3.5000000000000004 9.3124995231628436 1.5000000000000002 15416.500000000002 72.500000000000014 196.00000000000003 405.50000000000006 33.999200820922859 183.20999908447268 1.5000000000000002 53.500000000000007 1.5000000000000002 128.99040222167972 114.66680145263673 181.50000000000003 270.13305664062506 1.0000000180025095e-35 1.0000000180025095e-35 15484.500000000002 931.50000000000011 2.5000000000000004 17.500000000000004
decision_type=10 8 2 2 2 8 2 2 2 2 2 8 2 2 2 2 2 10 8 10 2 2 10 10 10 2 10 2 2 2 2 10 10 2 2 10 8 2 10 2 8 10 8 10 2 10 8 10 10 10 2 2 2 10 10 10 10 8 8 2 8 10 10
left_child=1 2 6 5 8 15 14 19 24 32 45 16 13 18 -1 39 -9 33 -7 20 29 -8 23 30 40 44 62 -19 -22 36 31 -13 -5 34 35 -18 46 -10 -15 54 -2 -12 43 -20 -16 -11 55 -40 -33 -17 52 -52 -21 61 -4 -3 -14 -30 -59 60 -37 -35 -6
right_child=4 7 3 9 26 12 21 11 37 10 41 22 56 38 25 49 17 27 42 50 28 -23 -24 -25 -26 -27 -28 -29 57 -31 -32 48 -34 53 -36 59 -38 -39 47 -41 -42 -43 -44 -45 -46 -47 -48 -49 -50 -51 51 -53 -54 -55 -56 -57 -58 58 -60 -61 -62 -63 -64
leaf_value=0.01893638984038391 0.023340276898523825 0.39017741147246593 0.015079800071174264 -0.0079929372414559823 0.14114227141208077 0.12671217134444787 0.0035107169605961049 0.45724831134540722 -0.022757655539309161 0.16868385052159574 0.014850840915527259 0.023097530006980161 -0.040209774542618662 -0.030277280183798508 0.10322203730727929 -0.013397694500024399 0.012707074666722129 0.0077303421547138609 0.058843969517562704 0.19585394026489872 0.2192284229949773 0.14545857638660473 -0.027145792586793567 0.2165901849309603 0.0099315015087782666 0.19844979717903607 -0.013900659922943587 0.15234676049458828 -0.02407934641728382 0.020307906183445575 0.13468135580932056 0.044843491119556073 0.19958652131557109 -0.0037143373727556782 -0.00051051945161997034 0.26715083282532109 0.022814648399205249 0.044389992639168457 -0.030746646061804651 0.16578252750484984 0.13150859789449701 0.30272817427520005 -0.0077782439448662285 0.38871289526795477 0.025176025356725203 0.048987101400038646 0.083635706840610738 0.20722384618449172 0.27573999989086828 0.041490387660552748 0.041907725444193029 0.2465643558492282 0.0032407966823880456 0.071492782128852059 0.091982964794061414 0.15464844577305226 0.22531603018677152 0.32376343166688426 0.086288476262872227 0.39346978132941768 -0.0072428730172400995 0.081942612024666572 0.0690631901657595
leaf_weight=102.71657821908593 22.309154823422432 4.8241008669137981 84.021012110635638 157.43070151656866 552.26918851584196 23.827651593834162 404.56596755236387 2.1442123837769023 88.461304645985365 83.91835905238986 81.600210603326559 93.623956002295017 4122.5045368950814 3041.8446374889463 181.38894176855683 315.84338967688382 16.856797523796558 25.050119016319513 15.805752001702787 45.737218081951141 18.944210529327393 20.169517487287521 30.877460334450006 21.000254828482866 33.740148659795523 32.252373091876507 15.050379458814858 35.346705749630928 15.083265308290718 255.90634996816516 50.921485021710396 7.1652567870914963 6.7505701780319205 862.0967926941812 45.51386483758688 9.1552740670740604 41.992264624685049 155.21621607616544 7.027452999725937 18.76362663321197 183.18375309556723 2.9004669338464728 803.7750731036067 2.5992832258343688 45.769612718373537 18.867502547800541 39.838568162173033 8.2827621772885305 8.9490230530500394 89.511602487415075 36.281054098159075 7.2769890800118437 7.1283806301653376 41.496903475373983 59.226493123918772 14.598224528133867 2.8483994770795098 6.0204730331897727 116.21447139233351 6.2322249040007582 4.4470011740922937 27.252589445561171 39.769914116710424
leaf_count=2274 193 73 2159 4629 3051 241 10733 26 2441 668 1840 2131 152348 107011 2428 9259 426 454 464 474 201 127 705 243 622 420 192 295 327 5554 730 165 89 22733 1234 171 841 3108 209 433 1358 25 24948 54 728 231 651 53 150 2197 540 97 148 992 1181 247 73 73 1490 97 117 397 311
internal_value=-0.00131583 -0.0109222 -0.0203275 -0.0257559 0.101201 -0.0288168 0.041399 0.037315 0.0617566 0.049105 0.0916767 0.0226168 -0.0320126 -0.0235426 0.0779316 0.0164053 0.0126568 0.0117688 -0.00152748 0.0683607 0.0572508 0.0102514 0.0730216 0.0900475 0.104275 0.101291 0.132577 0.0923658 0.100901 0.0381531 0.0735068 0.0451201 0.000542017 0.00696366 0.0615142 0.138453 0.0832548 0.0200136 -0.0296349 0.0606473 0.119765 0.0247322 -0.005244 0.10543 0.0874967 0.146712 0.126083 0.0979944 0.173071 -0.00127716 0.127517 0.0760985 0.169882 0.00214618 0.0468758 0.213149 -0.0400264 0.0845772 0.0979849 0.245321 0.177443 -0.00108953 0.1363
internal_weight=12722.2 11632.2 9734.21 8947.35 1090 8595.88 786.863 1897.98 482.911 351.468 187.287 1288.13 8028.52 3903.16 362.128 567.366 1075.59 1073.45 846.008 609.846 513.422 424.735 212.537 181.66 239.233 259.411 607.089 60.3968 156.262 357.16 160.66 109.738 164.181 1013.05 82.2052 36.6913 101.253 243.678 3057.15 162.011 205.493 84.5007 822.18 18.405 227.159 102.786 59.2609 15.3102 16.1143 405.355 96.4236 43.558 52.8656 930.846 143.248 19.4223 4125.35 137.318 122.235 19.8345 13.6023 889.349 592.039
internal_count=377880 366604 324822 308112 11276 300630 16710 41782 7722 7482 2764 31066 285401 132980 5850 15229 26942 26916 25707 10716 9457 10860 4124 3419 2173 3576 3554 749 2091 7366 3176 2446 4718 26167 2045 811 1812 5549 107273 3773 1551 1865 25466 518 3156 899 971 262 315 11456 1259 637 622 24122 3340 320 152421 1890 1563 385 288 23130 3362
is_linear=0
shrinkage=0.05


Tree=7
num_leaves=64
num_cat=0
split_feature=308 344 27 17 14 29 14 14 21 27 331 26 2 26 45 46 8 8 137 0 390 1 193 26 312 117 62 1 15 370 11 294 41 29 88 181 211 255 211 1 1 212 22 104 294 359 5 4 112 55 28 1 137 149 8 37 2 18 1 12 3 409 3
split_gain=4326.63 1896.6 1184.94 748.29 440.928 435.246 311.08 295.325 288.229 277.137 259.403 241.549 231.963 209.046 200.923 198.637 185.16 161.321 150.543 148.477 138.707 138.175 115.792 113.485 113.277 112.592 107.309 102.701 98.123 97.9694 93.9981 93.6731 90.6639 88.9495 87.098 86.6764 86.0781 85.8625 84.9607 83.8739 153.986 82.0499 80.7273 80.4691 80.3628 79.9343 79.905 79.0664 78.0129 80.3333 76.4646 95.9835 75.9277 74.8988 74.6481 72.8737 72.661 72.4656 88.9023 79.426 70.0616 93.5742 92.5708
threshold=1.5000000000000002 1.0000000180025095e-35 1.0000000180025095e-35 1.5000000000000002 3.5000000000000004 6.5000000000000009 5.5000000000000009 2.5000000000000004 4.5000000000000009 1.0000000180025095e-35 1.0000000180025095e-35 1.5000000000000002 1.5000000000000002 25.500000000000004 2.5000000000000004 1.5000000000000002 1.5000000000000002 1.5000000000000002 3.5000000000000004 2411458.0000000005 -47.499999999999993 226.12000274658206 2.5000000000000004 21.500000000000004 2.5000000000000004 1.5000000000000002 1.5000000000000002 141.004997253418 1.5000000000000002 267.44999694824224 5.5000000000000009 1.5000000000000002 135.50000000000003 19.500000000000004 4.5000000000000009 433.42500305175787 32.500000000000007 12.839250087738039 73.000000000000014 768.91500854492199 994.47500610351574 242.50000000000003 4.5000000000000009 2.5000000000000004 1.5000000000000002 75.132648468017592 149.50000000000003 210.50000000000003 1.5000000000000002 1.5000000000000002 78.500000000000014 335.00500488281256 2.5000000000000004 6.5000000000000009 1.5000000000000002 19.500000000000004 1.5000000000000002 1.0000000180025095e-35 159.95500183105472 8.5000000000000018 12696.000000000002 534.00000000000011 8691.5000000000018
decision_type=10 8 2 2 2 8 2 2 2 2 10 2 2 2 2 2 2 2 10 2 8 2 10 2 10 8 10 2 2 10 8 10 10 8 10 10 10 10 10 2 2 10 2 8 10 10 10 8 8 10 10 2 10 8 2 10 2 2 2 2 2 10 2
left_child=1 2 7 5 9 17 11 12 10 22 18 -5 19 -8 16 32 20 39 21 -1 -7 25 44 37 38 26 34 54 -27 43 -31 53 47 -32 -3 56 -30 -6 -16 -4 -41 -13 -28 -18 -2 -19 -33 -12 50 -50 51 -22 -15 -11 -21 -37 -23 58 -14 -60 61 -48 -63
right_child=4 8 3 6 23 14 13 -9 -10 31 15 41 57 52 24 -17 29 45 -20 27 48 35 -24 -25 -26 28 42 -29 36 30 33 46 -34 -35 -36 55 -38 -39 -40 40 -42 -43 -44 -45 -46 -47 60 -49 49 -51 -52 -53 -54 -55 -56 -57 -58 -59 59 -61 -62 62 -64
leaf_value=0.0070925731535340904 0.073518236194142245 -0.0024704354442322621 0.048765103794105376 0.1318176414752624 0.13039533352409913 0.11229098533782722 0.13199668303069867 0.14291150102369507 0.10529825022621538 -0.013236400516302153 0.041159520321375515 -0.021591604588167567 -0.010354144646357991 0.0058018797092542779 -0.039974907227691626 0.00054788095360481799 -0.030738252174616339 -0.014692742779564975 0.20446922267623557 0.094395378062157753 -0.0055190837436416632 0.25366358380165549 -0.024049006408245359 0.04629464192604861 0.17088265513497999 -0.0012972424725802129 0.00065084693755774678 0.1648198108308116 0.060203217676899061 0.12544314147698121 0.27759111451413604 -0.049148355977943294 0.00788326427274459 -0.024690713880855197 0.16783355865941399 0.14179105684895718 0.30971090872120549 0.05912155011450887 0.12252839453153577 0.33098532479624465 -0.0429447910304811 0.25371550711939655 0.15043736807378971 0.19123574110433417 0.13200023077831213 0.035951624291260649 0.072360033614365715 0.10554468658177502 0.064556643254637461 0.42483045363480199 -0.03521826262693848 0.062650296844349682 0.21316426112949244 0.20650730806820491 0.035329569890672839 0.008588188539822501 0.031117062707028822 -0.041052014713346234 -0.022463541470991305 0.06167309330129233 0.012416711747723392 0.10751426239115283 0.38100571264470046
leaf_weight=96.980342019349337 117.92040909826756 879.37246370315552 132.3697794098407 31.190113972872496 546.99167479947209 25.526735961437225 112.13739934749901 61.975108049809933 133.33340919017792 141.19981587305665 60.463799212127924 196.80824144743383 178.08141205087304 62.432157963514328 3945.6037451066077 95.943212900310755 2899.8877612836659 299.47185872122645 10.835775356739758 118.96724256873131 552.31506513431668 3.7452588602900496 19.531857244670391 49.787205830216408 6.399851329624652 84.983912605792284 15.749028604477642 31.243355866521597 142.99055236205459 18.986824799329042 2.58235278725624 15.571334585547445 36.13710979372263 42.264421055093408 7.5722048580646506 40.308640386909246 3.5423575788736335 45.793139740824699 8.0597165338695032 7.2285496480762941 4.4469667878001928 2.7440793197602025 20.976091627031565 4.0886212550103656 117.05187276750803 105.31206951104105 44.302548937499523 225.57287546619773 8.5696643814444524 1.8882073275744904 193.58770712278783 56.962054815143347 4.7503776475787154 3.9872709047049275 97.192906033247709 13.777559984475372 177.22736836969852 73.863958947360516 36.883276376873255 117.12186372280121 30.311311949044466 7.0889364350587112 5.4903838634490967
leaf_count=2229 1114 22952 3202 736 2768 243 832 430 1290 3502 1025 6211 4600 1463 151373 2318 105093 8656 138 1422 17649 79 340 451 46 1992 324 387 2654 400 89 389 760 1396 118 542 54 335 194 91 71 45 128 80 719 2540 812 3334 252 57 6017 1337 39 62 1571 313 3761 2113 938 3020 587 119 78
internal_value=-0.00132208 -0.0105582 -0.0197492 -0.0251263 0.0913629 -0.0283778 0.0408104 0.038011 0.0343388 0.056275 0.0291381 0.00241922 0.0293465 0.0902108 -0.0314187 0.0637002 -0.0232162 0.0146542 0.0188239 0.0595298 -0.00247433 0.0173769 0.0929276 0.1188 -0.0393034 0.0102664 0.00245139 0.0800848 0.0414456 -0.0290789 0.0321941 0.0186538 0.0825069 -0.00728482 -0.00101648 0.0523212 0.0662349 0.124889 -0.0396436 0.0600963 0.188563 -0.0178058 0.0862036 -0.0304257 0.102651 -0.00151667 0.0551827 0.0919346 -0.00607632 0.129605 -0.00784367 0.000854154 0.0204642 -0.00720158 0.0678374 0.10786 0.0357227 0.00374083 0.0137038 0.0415229 0.0738146 0.106532 0.226883
internal_weight=12635.5 11490.5 9537.92 8725.61 1145.03 8315.55 410.062 812.309 1952.53 502.456 1819.2 230.742 750.334 179.32 7766.72 418.117 3806.66 548.829 1401.08 344.384 838.849 1390.25 254.504 642.572 3960.06 1155.19 923.67 247.404 231.517 2967.81 63.8336 247.952 322.174 44.8468 886.945 235.059 146.533 592.785 3953.66 144.045 11.6755 199.552 36.7251 2903.98 234.972 404.784 102.765 286.037 813.323 10.4579 802.865 609.277 67.1825 145.187 216.16 54.0862 180.973 405.951 332.087 154.005 87.1932 56.8819 12.5793
internal_count=377880 366604 324822 308112 11276 298786 9326 16710 41782 7722 40492 6992 16280 2334 284226 7437 132613 14560 33055 5609 25555 32917 2173 3554 151613 28222 23522 3380 4700 107058 1885 5549 5119 1485 23070 4695 2708 3103 151567 3364 162 6256 452 105173 1833 11196 1985 4359 25312 309 25003 18986 1502 3564 2993 855 3840 10671 8558 3958 1596 1009 197
is_linear=0
shrinkage=0.05


Tree=8
num_leaves=64
num_cat=0
split_feature=308 344 27 21 29 14 13 8 27 29 45 8 117 421 1 104 70 19 12 364 390 36 26 12 14 333 37 149 193 18 36 344 18 18 4 344 329 370 4 9 103 24 0 307 237 3 23 111 370 9 28 24 410 44 11 211 34 137 29 3 3 14 18
split_gain=3769.24 1711.06 1078.67 689.245 440.006 371.592 260.42 257.324 228.817 223.331 212.443 188.617 188.138 169.463 142.167 127.703 173.716 118.861 123.108 117.22 115.697 112.528 110.053 107.353 105.724 99.5267 99.5212 98.4548 96.0784 94.662 92.9272 152.815 139.65 107.146 91.2917 108.956 90.1998 90.0725 89.6715 93.056 89.5463 84.5592 84.3648 83.7689 79.03 77.4154 84.4835 88.6439 77.263 140.474 98.9373 79.7001 76.3804 75.8855 75.8398 75.0538 74.6379 74.5315 95.4898 98.5609 121.2 74.1546 240.258
threshold=1.5000000000000002 1.0000000180025095e-35 1.0000000180025095e-35 2.5000000000000004 6.5000000000000009 3.5000000000000004 16.500000000000004 1.5000000000000002 1.0000000180025095e-35 6.5000000000000009 2.5000000000000004 1.5000000000000002 1.5000000000000002 28.000000000000004 90.003501892089858 1.5000000000000002 1.0000000180025095e-35 1.5000000000000002 2.5000000000000004 87.960800170898452 -47.499999999999993 53.500000000000007 2.5000000000000004 1.0000000180025095e-35 1.5000000000000002 8.5000000000000018 27.500000000000004 1.0000000180025095e-35 1.5000000000000002 1.0000000180025095e-35 527.50000000000011 4.5000000000000009 1.0000000180025095e-35 1.0000000180025095e-35 340.50000000000006 7.5000000000000009 1.0000000180025095e-35 267.44999694824224 321.50000000000006 158.50000000000003 1.5000000000000002 2.5000000000000004 2583287.5000000005 3.5000000000000004 1.5000000000000002 14649.500000000002 1.5000000000000002 1.5000000000000002 107.95499801635744 492.50000000000006 359.50000000000006 3.5000000000000004 254.50000000000003 1.0000000180025095e-35 5.5000000000000009 22.500000000000004 9.3124995231628436 1.5000000000000002 234.50000000000003 9027.5000000000018 7585.5000000000009 12.500000000000002 4.5000000000000009
decision_type=10 8 2 2 8 2 2 2 2 10 2 2 8 8 2 10 10 2 2 10 8 10 2 2 2 10 10 10 10 2 10 10 2 2 10 8 10 10 8 8 10 2 2 8 10 2 2 10 8 10 8 2 10 2 8 10 8 8 10 2 2 2 2
left_child=1 2 6 4 14 8 13 17 28 22 11 20 15 24 -4 23 -17 19 40 -3 -6 25 -5 -9 -1 45 -20 -7 -2 41 33 -32 -33 48 35 38 52 -13 39 -21 -19 -8 -10 55 -12 46 47 -14 -25 50 51 -50 -15 -18 -39 -44 -22 -11 59 60 -59 -58 -63
right_child=5 7 3 9 10 27 29 12 42 57 44 37 21 36 -16 16 53 18 26 34 56 -23 -24 30 -26 -27 -28 -29 -30 -31 31 32 -34 -35 -36 -37 -38 54 -40 -41 -42 -43 43 -45 -46 -47 -48 -49 49 -51 -52 -53 -54 -55 -56 -57 61 58 -60 -61 -62 62 -64
leaf_value=-0.0007016652826889833 0.09532891487306068 0.012968891330381047 -0.0076370475536304723 0.13403494658438794 0.10014106835126879 0.11080671908378517 0.01745069619822746 0.2999285168699527 -0.022384794367312721 -0.031440100833694223 -0.039448374929989455 -0.029674221267487356 0.027510842662586445 0.10045527558000639 0.042048423810852414 0.14165844574041686 0.081178981307325537 -0.017956041946490031 0.10386649537922679 0.29456583508936712 0.089694143546542038 -0.027911665513207447 0.053497792689004731 0.0044087073473860709 0.1546284011632284 0.16601732850549497 0.022366173800090452 -0.016089345579719038 0.0065844249166378578 -0.040717465388087327 0.0045757887987080163 0.11857867900739481 0.50722625383352993 -0.029392598759487722 0.03831012465915274 0.39929131806989959 0.0076107074716210881 0.10851676264976029 0.20787488908749507 0.027879530006845257 0.17566298178585296 0.15218123094019531 0.025005143752067194 0.31507153927122755 0.085130144765635241 -0.0022466259324683017 0.13364052278725491 0.15360799385894047 0.012716263466449537 0.42575374701104973 0.3238691090869385 0.16438064401436114 0.29889161443433504 -0.018850102335377126 -0.0070781320209744912 0.16543504213443486 -0.0091955504409361854 0.053224484544785226 -0.042696767273131542 0.0019278318230769678 0.30725552040610593 0.4970081041737352 -0.010249648403995283
leaf_weight=94.169495444744825 232.87179094552994 207.01988279446959 326.17585893720388 57.920566562563181 27.127347834408283 655.93753334879875 418.02664452046156 3.0639561899006358 87.34802564792335 94.239957217127085 3814.6585887540132 2827.3558484409004 76.472095258533955 194.49507870897651 257.73554537259042 41.53640029579401 29.287395376712084 45.325035102665424 239.2104251421988 3.7046985067427185 20.365102156996727 31.647021189332008 158.48330763727427 643.52313215658069 12.396858960390089 25.406057726591825 44.411645747721195 15.650237478315828 35.095157980918884 72.064497619867325 18.503549344837669 7.2605314925312978 3.3908184170722961 224.31873712688684 70.290545757859945 3.4155369959771624 26.740768186748028 20.799168549478054 14.894900631159542 27.94246331602335 6.8777634277939788 11.979526881128548 151.69960819557309 2.6913720890879622 12.773128177970646 38.778810732066631 45.371837627142668 17.043521381914616 64.174759920686483 2.4962088055908671 3.0475387498736373 10.013945423066614 4.9733068123459807 53.771341308951378 44.648949174210429 10.151362575590609 781.59231394343078 10.277758298441769 21.220425218343735 16.444031974300742 8.644641160964964 3.0792725533246985 9.6489240750670415
leaf_count=2131 1616 4443 9337 634 241 3362 9378 26 2441 2830 152147 105388 1650 2420 5892 428 496 736 2816 47 518 705 2575 15939 76 243 855 192 557 2133 508 95 73 6475 1086 50 446 400 174 468 41 84 2924 32 274 720 538 268 1512 40 62 143 42 1145 1485 152 24567 256 648 445 94 74 307
internal_value=-0.00132042 -0.0102012 -0.0191857 -0.0245045 -0.0275252 0.0832824 0.0350514 0.0317463 0.0515447 0.0425013 -0.0307543 -0.0222703 0.0191328 0.0693527 0.0142939 0.0104928 0.0581717 0.0572191 0.0781168 0.035775 -0.00144029 0.0597852 0.0750536 0.00442973 0.0173679 0.073452 0.0911046 0.10785 0.0837062 0.0123163 0.00350277 0.0914263 0.242303 0.000797542 0.0750382 0.126715 0.0938426 -0.0283319 0.106712 0.0590985 0.00755343 0.0212041 0.0173304 0.0384134 -0.0390326 0.0602153 0.0776553 0.0504925 0.0101611 0.0565884 0.0446573 0.0331878 0.105403 0.0164212 0.0296575 0.033813 -0.00482274 -0.00420425 0.0411544 0.0914665 0.169278 -0.007246 0.112469
internal_weight=12541.7 11350.2 9348.04 8513.19 8145.96 1191.45 834.846 2002.2 519.857 367.231 7562.05 3734.62 1339.11 332.776 583.911 1104.39 124.595 663.093 335.825 327.268 841.813 234.719 216.404 979.793 106.566 203.072 283.622 671.588 267.967 502.071 976.729 29.1549 10.6513 947.574 120.248 49.9576 226.209 2892.8 46.5421 31.6472 52.2028 430.006 251.89 164.542 3827.43 177.666 138.887 93.5156 723.256 79.7325 77.2362 74.1887 199.468 83.0587 65.4481 161.851 814.686 150.827 56.5869 35.3664 18.9224 794.321 12.7282
internal_count=377880 366604 324822 308112 300630 11276 16710 41782 7722 7482 285401 132980 31066 5115 15229 26942 2069 10716 4448 6268 25707 4124 3209 24873 2207 3419 3671 3554 2173 11595 24847 676 168 24171 1825 739 2908 107273 689 515 777 9462 5549 3108 152421 3176 2456 1918 17696 1757 1717 1655 2462 1641 1885 3076 25466 4273 1443 795 350 24948 381
is_linear=0
shrinkage=0.05


Tree=9
num_leaves=64
num_cat=0
split_feature=17 27 358 29 14 12 365 120 0 0 129 237 152 95 141 14 45 1 29 15 365 132 4 367 9 26 5 4 9 239 27 7 14 45 15 14 7 117 1 0 11 31 373 4 4 25 0 45 25 5 4 3 125 13 34 126 351 390 257 1 362 360 199
split_gain=3314.82 1792.25 1462.58 553.904 365.273 358.998 342.172 309.825 247.95 236.785 269.159 231.016 158.049 149.137 148.065 141.21 138.869 138.088 116.698 113.554 110.01 112.284 104.17 102.867 106.231 103.889 100.093 96.6998 155.773 92.4658 90.7783 90.7504 85.7814 84.622 83.6774 87.8067 98.2028 82.5452 81.9586 79.5121 76.762 76.1327 74.6057 74.2226 120.129 72.7066 72.3107 70.4326 70.1831 70.0687 69.8662 67.3775 67.242 66.0897 82.1018 65.987 65.301 64.3221 64.124 63.7199 63.0618 61.342 61.2563
threshold=1.5000000000000002 1.0000000180025095e-35 125.9389991760254 62.500000000000007 2.5000000000000004 15.500000000000002 67.969997406005874 1.0000000180025095e-35 2504786.5000000005 2411458.0000000005 1.0000000180025095e-35 1.5000000000000002 1.0000000180025095e-35 1.5000000000000002 1.0000000180025095e-35 6.5000000000000009 1.0000000180025095e-35 380.48500061035162 8.5000000000000018 1.5000000000000002 68.047199249267592 1.5000000000000002 532.50000000000011 334.25000000000006 337.50000000000006 100.50000000000001 178.00000000000003 1.0000000180025095e-35 123.50000000000001 1.5000000000000002 1.5000000000000002 115.50000000000001 17.500000000000004 1.0000000180025095e-35 5.5000000000000009 4.5000000000000009 224.50000000000003 3.5000000000000004 335.00500488281256 4468657.5000000009 85.500000000000014 6.5000000000000009 11.500000000000002 309.50000000000006 452.50000000000006 2.5000000000000004 1363862.0000000002 1.0000000180025095e-35 26.500000000000004 184.00000000000003 289.50000000000006 4808.0000000000009 1.0000000180025095e-35 16.500000000000004 34.812498092651374 1.0000000180025095e-35 3.5000000000000004 -25.499999999999996 1.0000000180025095e-35 735.08999633789074 39.995000839233406 98.009998321533217 1.5000000000000002
decision_type=2 2 10 10 2 2 10 10 2 2 8 10 10 8 10 2 2 2 8 2 10 8 10 10 8 2 10 10 10 8 2 10 2 2 2 2 8 8 2 2 10 10 10 10 8 2 2 2 2 10 8 2 8 2 10 10 10 10 10 2 10 10 10
left_child=1 4 7 5 9 -2 16 11 29 26 33 12 18 15 17 30 23 20 -3 -15 -8 40 31 -4 25 32 -1 28 -20 58 50 57 34 -11 35 36 39 -21 42 43 56 47 49 -25 -45 59 -23 -19 -5 62 -10 55 -37 54 -33 -41 -22 -12 -7 -14 -39 -48 -29
right_child=3 2 6 48 -6 8 14 -9 13 10 22 -13 45 19 -16 -17 -18 41 27 37 21 46 -24 24 -26 -27 -28 38 -30 -31 -32 53 -34 -35 -36 52 -38 60 -40 51 -42 -43 -44 44 -46 -47 61 -49 -50 -51 -52 -53 -54 -55 -56 -57 -58 -59 -60 -61 -62 -63 -64
leaf_value=-0.01913192704187397 -0.0026340919469484188 0.0040333150147069414 0.002509959177342239 -0.02330911146968033 0.10451355731084354 0.049304618379273329 0.30118422901005104 -0.040331249854588247 0.14754980986426436 0.030186724485758744 0.32539439745267695 0.058738962661889521 0.0072161201799545265 5.1668724282548224e-05 -0.013560513469104593 0.11660107893669779 -0.018605211845295396 0.15387783973811087 0.13508582234707106 0.11343024301763459 0.024444846842245595 -0.0012195837222667798 0.033008696037536409 0.10962772950363536 -0.032812536352237479 -0.029463597486223653 0.054116875053998897 -0.031221215691415834 -0.018284042298389584 0.091687271621382627 -0.017827014473800917 0.10381125689209836 0.25842828633759729 -0.024479397361967182 -0.030263140615572955 0.26728012549530061 0.012925780057609733 0.14631741593611494 0.0067847746686193026 0.31883529687046219 0.08472993072221631 0.040713538823435792 0.16077616320059063 0.48594142631042248 0.12066238154732004 0.20502070503036798 0.23870773227395362 0.02604689154503699 0.086277111584161015 -0.0126780495824899 0.039489068920231261 -0.018682748269768561 0.10754164096390686 0.046083926224693629 0.018140516882727078 0.023078240016611237 0.24006235014564559 0.13156522908738535 -0.022466366564355536 0.22381643502468754 0.25199574955681314 0.09430100103621554 0.12561083559239927
leaf_weight=244.35162872076035 103.76345648244023 359.25743247941136 348.86502230353653 146.82624654471874 210.32163659483194 138.3269872199744 4.1594487354159346 2773.2255798373371 21.641489021480083 175.27324954047799 5.1208479106426266 92.351324662566185 323.09334341436625 17.807974377647042 91.43533188290894 108.34478268399835 425.52097279578447 64.515034101903439 24.173862777650356 330.0349362809211 448.59717012569308 18.578098019585013 154.58504736423492 16.11475216597319 35.219792123883963 26.351520238444209 57.639787174761295 3534.6017884425819 52.536050071939826 108.49662378244102 45.518059853464365 187.70143491029739 6.3185048066079608 118.75868811830878 18.132762311026454 9.7312643341720122 50.388980489224195 171.5752018392086 176.52728877961636 3.6327856443822411 63.772731676697731 31.869341170415282 5.2272707205265752 4.1637528426945183 4.8991074338555345 4.8246396891772738 8.055615318939088 12.936290374025701 16.224839452654123 616.35011618025601 48.433927088975906 14.581962108612059 20.397035479545593 129.83360632881522 32.861969757825136 3.9220588803291321 3.5391979552805415 26.07228159531951 40.156256629154086 3.4315073229372492 15.382367026060818 84.433287348598242 6.2371629364788523
leaf_count=5789 1868 10005 10630 4055 1181 2024 46 112633 299 4428 80 1431 8160 435 2434 595 13116 725 242 2067 9246 336 2149 219 853 717 850 133757 1862 923 924 2077 51 3195 467 103 1211 1182 5777 34 1100 519 50 73 108 57 103 199 191 20947 804 321 163 1857 528 74 44 345 779 75 152 1107 108
internal_value=-0.00131507 -0.0101741 -0.0176019 0.0738381 0.0440021 0.0860714 0.0228391 -0.0268354 0.0948733 0.0327612 0.046552 -0.019636 -0.0210535 0.109847 0.0464678 0.0755899 0.00294874 0.0538804 -0.0233707 0.124191 0.0448939 0.0431937 0.0676347 0.0192475 0.0465519 0.0621995 -0.00515125 -0.0256003 0.0300479 0.0552852 0.0371505 0.081662 0.0780612 0.00810723 0.0702535 0.0845116 0.0615 0.128467 -0.0265841 0.113231 0.033376 0.105761 -0.0279993 0.174008 0.288483 0.0123394 0.0887971 0.132527 -0.0124044 -0.0282367 0.0728616 0.044105 0.159136 0.0743868 0.0910471 0.165295 0.0261326 0.163385 0.0331571 0.00949241 0.155012 0.106879 -0.030945
internal_weight=12447 11134.5 9791.97 1312.53 1342.52 1149.48 1820.13 7971.84 1045.72 1132.2 830.207 5198.61 5106.26 758.739 831.892 223.938 988.24 740.456 4774.91 534.8 631.136 626.976 536.175 562.719 213.854 178.634 301.991 4415.65 76.7099 286.98 115.593 381.59 152.283 294.032 145.964 127.832 97.7034 516.993 4338.94 47.3144 515.909 109.321 4162.42 25.1776 9.06286 331.349 111.067 77.4513 163.051 4157.19 70.0754 22.1368 30.1283 350.397 220.563 7.55484 452.136 31.1931 178.483 326.525 186.958 92.4889 3540.84
internal_count=377880 361582 339103 16298 22479 12052 43999 295104 10184 21298 14659 182471 181040 6458 15859 2622 28140 13425 172748 3836 11982 11936 7036 15024 4394 3541 6639 162743 2104 3726 2027 4887 2824 7623 2773 2306 2040 3401 160639 829 10390 1443 154862 400 181 8292 1546 924 4246 154812 1103 429 266 4462 2605 108 9290 425 2803 8235 1334 1210 133865
is_linear=0
shrinkage=0.05


Tree=10
num_leaves=64
num_cat=0
split_feature=308 344 27 21 29 14 8 27 120 14 29 8 26 2 18 24 29 36 99 29 15 26 4 41 28 12 14 62 38 26 3 195 12 177 26 14 215 259 1 392 32 126 24 15 174 54 11 11 36 36 9 41 86 85 1 6 27 17 370 19 15 3 15
split_gain=3044.25 1398.98 913.944 605.67 380.709 302.368 256.738 240.489 234.183 194.405 189.098 168.455 141.587 141.286 130.778 134.127 170.278 115.265 198.53 111.835 111.265 151.85 108.582 105.411 138.381 130.088 129.548 96.8443 94.2612 93.2923 99.2594 92.7996 92.1351 116.544 89.6466 89.1303 87.8666 86.8823 84.9341 81.7223 81.5564 79.2769 78.8917 76.7944 101.856 90.8868 87.673 153.72 239.097 87.1163 76.6935 73.3969 79.9976 79.5048 74.19 77.6643 72.8461 72.6198 72.1753 72.1515 69.9928 69.8556 76.5882
threshold=1.5000000000000002 1.0000000180025095e-35 1.0000000180025095e-35 2.5000000000000004 6.5000000000000009 7.5000000000000009 1.5000000000000002 1.0000000180025095e-35 1.0000000180025095e-35 2.5000000000000004 9.5000000000000018 1.5000000000000002 1.5000000000000002 1.5000000000000002 1.0000000180025095e-35 1.5000000000000002 28.500000000000004 530.50000000000011 1.5000000000000002 475.50000000000006 1.5000000000000002 1.5000000000000002 1.0000000180025095e-35 62.500000000000007 1.0000000180025095e-35 53.500000000000007 4.5000000000000009 1.5000000000000002 297.50000000000006 8.5000000000000018 10111.500000000002 2.5000000000000004 53.500000000000007 1450.4849853515627 2.5000000000000004 4.5000000000000009 737.50000000000011 148.53274536132815 141.004997253418 1.0000000180025095e-35 53.500000000000007 2.5000000000000004 1.5000000000000002 3.5000000000000004 2.5000000000000004 1.0000000180025095e-35 63.500000000000007 87.500000000000014 130.50000000000003 483.50000000000006 123.50000000000001 76.500000000000014 1.5000000000000002 1.5000000000000002 335.00500488281256 1.5000000000000002 2.5000000000000004 471.50000000000006 1616.4949951171877 7.5000000000000009 1.5000000000000002 14649.500000000002 3.5000000000000004
decision_type=10 8 2 2 8 2 2 2 8 2 10 2 2 2 2 2 10 10 10 10 2 2 10 10 10 2 2 10 8 2 2 10 2 8 2 2 10 10 2 8 8 10 2 2 10 10 10 10 10 8 10 10 10 10 2 2 2 2 10 2 2 2 2
left_child=1 2 9 4 12 7 23 36 11 13 34 22 40 31 15 19 61 -16 -19 -8 -9 42 50 24 35 -25 -27 29 -10 30 32 38 33 -18 -5 -3 60 -30 -1 -23 -4 43 -22 58 46 -46 -45 48 -48 -49 -6 52 54 -54 -24 -56 -37 -7 59 -13 -2 62 -17
right_child=5 6 3 10 8 57 14 20 28 -11 -12 41 -14 -15 17 16 27 18 -20 -21 21 39 51 25 -26 26 -28 -29 37 -31 -32 -33 -34 -35 -36 56 -38 -39 -40 -41 -42 -43 -44 44 45 -47 47 49 -50 -51 -52 -53 53 -55 55 -57 -58 -59 -60 -61 -62 -63 -64
leaf_value=0.04351246502014653 0.05751814630409724 0.014560890741838041 0.025329569780917424 0.11521686959423 0.13850734135724765 0.10996985602370775 0.0039714073375069605 -0.024033732099566482 0.31394312917625178 0.10835243499978225 -0.007218100519564394 -0.030591758543029882 -0.00402612736892549 0.002927444132957124 -0.025073492481690746 0.050972359760225606 0.032281566625059571 0.038784549282243348 0.53826042127528928 0.15482658218814604 0.033657074409732771 -0.015585120815019688 -0.0029337140726640137 -0.0015175393763278333 0.081308157790279834 -0.00096932284914879447 0.21956529145366199 0.098081174546599648 -0.039322338011594335 -0.035057362987134723 -0.042070038037873979 -0.03088744465396541 0.35948296707119631 0.35568899261012321 0.046445789681060848 0.23045113373899354 -0.022652309622535133 0.13805471009828485 0.1181437919405412 0.064538964446373831 0.096435543525369607 0.30220342016788893 0.10292538524818882 -0.015337822469757418 0.60551136189502985 0.021470863964081627 -0.015717081782135565 0.017130713036607792 0.93058966328067516 0.36497027664953513 0.004017235020258054 -0.0267975454437018 0.41537802300202809 0.0090211560906522641 0.26963676362267081 0.041686475957439073 0.049273004949284244 0.023267106031116362 0.082901566326842036 0.28976760543883501 0.10216193382363115 0.014850475884174333 0.10679587813527042
leaf_weight=312.9976886510849 134.58968121185899 160.81690664216876 121.57568223774433 64.577113317325711 22.904795022681355 425.84594839438796 604.41796310245991 84.066592246294022 1.893115062266588 73.389784786850214 146.31481636315584 2486.3523666784167 413.03300370275974 412.97122658416629 245.74234093166888 134.66674067825079 20.37757768295706 12.488852223381398 2.3664465583860865 12.540509819984434 71.210997613146901 118.83807714469731 503.40207716077566 141.5793711990118 352.48149911314249 12.28555426746607 14.540565192699431 23.55891277641058 3464.405504129827 111.62353903241456 17.486439164727926 36.710977718234062 3.2753085829317561 3.2267762273550025 178.02068789675832 9.0119731463491934 19.30731338635087 6.9173947628587475 43.409505914896727 43.463047973811626 60.340879825875163 1.8312850333750237 97.231436338275671 259.12154814787209 1.2939918842166656 1.372834652662277 1.403338493779301 28.468044223263863 1.2729998119175432 1.9215352330356825 19.732431432232261 273.18391539342701 2.3549696262925854 2.4622158110141754 4.0386551916599265 49.967443274334073 14.433710414916275 25.602664824575186 14.144396724179385 1.7588048912584771 252.51608182862401 56.547030542045832 112.99815290793777
leaf_count=4266 1094 3196 2581 629 151 1889 14207 2185 24 438 4225 97751 11403 10596 7096 2385 402 297 48 207 1317 1580 16705 2531 4371 216 167 149 147919 2986 406 864 77 35 2725 61 255 157 527 521 1192 47 982 10072 50 53 55 1111 50 75 628 8968 75 73 105 1202 157 172 199 68 1334 1031 1469
internal_value=-0.00105655 -0.0094689 -0.0179758 -0.0232111 -0.0262684 0.0721822 0.0276366 0.0541124 -0.0294661 0.030444 0.0376757 -0.0206717 0.0121616 0.0233509 0.0149525 0.0224931 0.0422038 -0.0168976 0.118351 0.00703774 0.0273302 0.0403856 -0.00156415 0.0521239 0.0629523 0.0176113 0.118567 0.00359106 -0.0387765 -0.0106797 0.0506538 0.0448058 0.110975 0.0764922 0.064752 0.0278388 0.081448 -0.0389689 0.0526024 0.00587152 0.0489151 -0.0266658 0.0736414 -0.0268811 -0.00274642 0.304858 -0.00555395 0.0711175 0.434394 0.0391246 0.0762656 -0.00553638 0.00479436 0.207676 0.00304104 0.0587329 0.118914 0.105053 -0.029725 -0.0303653 0.0866401 0.0649934 0.0764421
internal_weight=12352.7 11080 9013.55 8134.07 7745.15 1272.67 2066.47 821.223 7150.2 879.479 388.913 3676.99 594.95 806.089 1361.32 1100.72 483.76 260.598 14.8553 616.958 414.81 330.744 878.047 705.15 536.744 168.405 26.8261 179.549 3473.22 155.99 44.3661 393.118 26.8797 23.6044 242.598 184.263 406.413 3471.32 356.407 162.301 181.917 2798.94 168.442 2797.11 294.854 2.66683 292.187 33.0659 2.67634 30.3896 42.6372 835.409 562.225 4.81719 557.408 54.0061 23.4457 451.449 2502.26 2488.11 387.106 304.212 247.665
internal_count=377807 366478 324984 308293 300714 11329 41494 9268 285538 16691 7579 137438 15176 16253 30795 23354 8940 7441 345 14414 6585 4400 27907 10699 7785 2914 383 4055 148100 3906 920 5657 514 437 3354 3414 2683 148076 4793 2101 3773 109531 2299 109484 11466 103 11363 1291 105 1186 779 27128 18160 148 18012 1307 218 2061 98018 97819 2428 4885 3854
is_linear=0
shrinkage=0.05


Tree=11
num_leaves=64
num_cat=0
split_feature=17 27 358 29 120 14 0 331 29 0 13 137 13 213 376 46 32 206 1 104 428 1 13 1 13 105 390 4 215 94 2 15 429 45 99 117 3 80 124 14 26 331 3 31 3 0 1 205 336 114 14 18 26 9 420 34 0 195 104 316 47 332 28
split_gain=2709.87 1499.64 1236.52 480.871 389.894 320.1 285.238 223.719 222.643 189.298 195.197 187.273 158.107 129.649 130.275 129.506 124.516 122.133 117.02 111.387 109.003 106.085 110.963 103.916 97.397 90.6313 89.0464 98.1094 88.3077 86.8407 82.7649 81.6935 77.2783 76.0983 92.883 78.7144 129.612 74.375 73.7897 76.763 97.5308 71.5862 77.5676 85.3999 80.285 73.3086 71.0969 71.0707 67.1793 66.9437 66.6579 103.059 71.2141 68.2252 64.6183 78.4137 69.6739 60.8067 59.6565 58.8361 58.6632 58.2257 62.0736
threshold=1.5000000000000002 1.0000000180025095e-35 233.97499847412112 26.500000000000004 1.0000000180025095e-35 2.5000000000000004 2504786.5000000005 1.0000000180025095e-35 24.500000000000004 2411458.0000000005 16.500000000000004 3.5000000000000004 1.5000000000000002 70.500000000000014 7.5000000000000009 1.5000000000000002 2.5000000000000004 1.5000000000000002 788.92001342773449 1.5000000000000002 1.0000000180025095e-35 141.004997253418 15.500000000000002 279.97500610351568 54.500000000000007 2.5000000000000004 -47.499999999999993 1.0000000180025095e-35 445.50000000000006 1.5000000000000002 1.5000000000000002 1.5000000000000002 1462.5000000000002 1.0000000180025095e-35 1.5000000000000002 1.5000000000000002 9480.5000000000018 1.0000000180025095e-35 1.5000000000000002 5.5000000000000009 2.5000000000000004 1.0000000180025095e-35 17187.500000000004 24.500000000000004 17477.500000000004 3790954.5000000005 994.47500610351574 1.5000000000000002 1.0000000180025095e-35 2.5000000000000004 4.5000000000000009 1.5000000000000002 113.50000000000001 270.50000000000006 72.500000000000014 81.354167938232436 4819234.5000000009 21.500000000000004 2.5000000000000004 26.585850715637211 1.0000000180025095e-35 4.5000000000000009 359.50000000000006
decision_type=2 2 10 10 10 2 2 8 8 2 2 10 2 10 10 2 8 8 2 8 2 2 2 2 2 10 8 10 10 8 2 2 2 2 10 10 2 8 8 2 2 10 2 8 2 2 2 8 10 8 2 2 2 10 2 10 2 8 10 10 2 10 10
left_child=1 5 4 6 7 9 17 11 15 47 20 13 -8 14 16 18 -3 -2 41 37 32 -22 -23 26 -16 31 27 -18 54 49 57 -14 -11 34 35 36 -10 -12 39 40 -33 60 45 44 -44 -43 -20 -1 -9 -19 51 61 53 -52 55 56 -21 -25 -28 -31 -4 62 -38
right_child=3 2 8 -5 -6 -7 12 48 33 10 19 -13 25 -15 24 -17 23 29 46 28 21 22 -24 30 -26 -27 58 -29 -30 59 -32 38 -34 -35 -36 -37 50 -39 -40 -41 -42 42 43 -45 -46 -47 -48 -49 -50 -51 52 -53 -54 -55 -56 -57 -58 -59 -60 -61 -62 -63 -64
leaf_value=-0.02672958675034089 -0.011364100578740106 0.00045026500923875672 0.052998378239858396 -0.0064846453580447777 -0.039608760874145818 0.092677336383449965 0.0059557656992153575 0.034894662077527061 -0.020925159987648833 -0.020765233862599274 0.017536436285458163 0.11235221767416499 0.0043946372142644775 0.093179777871856523 -0.053527468977782003 -0.0084050572745360697 0.11981206422576496 0.017393420411034439 0.17930556461999569 0.32791496676951015 0.074110253256385913 0.026676643089420513 0.21286217132579749 0.35767852789260085 0.21851547989876396 0.032749623376325081 -0.026960325092382456 -0.020486701554638963 -0.033728024771333236 0.098395536296196739 0.00052167263752001545 0.086503868651792978 0.057280946802762828 -0.013400329401488976 0.33962696270256076 0.092011768703115213 -0.0060173222506217641 -0.04062806659312676 0.12362922774597276 0.10457981227669864 -0.014794223681616238 0.014098854502109471 0.37901703706229023 0.0088281797176517629 0.14207598914035566 0.076609590722150345 0.031345181100775742 0.021619792116365943 -0.0072399748708990609 0.14009789629892277 0.13325161416105785 0.33143451252764256 -0.042498063001412296 0.010916934875717202 0.049821555432143137 -0.015517726691545384 0.13615519211659668 0.043312725940119604 0.1624343137432302 -0.021477746764771544 0.0042462149080535454 0.19218088260940325 0.081923979318918205
leaf_weight=173.57551154866815 90.482917867600918 601.15116510167718 143.69007425196469 202.73125353828073 2672.0934942290187 229.01703561842442 49.644135031849146 256.94153997302055 162.81179184280336 41.062032856047153 340.42776815220714 26.921202573925257 20.703327838331461 25.231245858594775 4.9387493599206183 85.445107821375132 21.855818159878254 121.74795402027667 29.817348774522543 5.9706958755850819 150.36349450796843 10.820679519325493 30.726886935532093 2.7983213663101196 9.8560545910149813 49.958965817466378 4014.7919800970703 28.987336358055472 17.601545866578817 108.92392786219716 300.23237939737737 79.725889766588807 139.36774346232414 257.29608915187418 2.2767628021538249 34.25825172662735 120.93922982923687 65.542022440582514 308.63662112131715 299.8319655880332 33.850836906582117 62.649541210383177 5.2829375900328186 6.8938029520213631 11.059457905590532 186.58432343788445 11.156836055219172 135.21457347273827 149.72872297652066 12.232288748025892 42.450822168961167 2.6021256726235142 10.258907880634068 15.57954773493111 44.446973215788603 6.5760223083198062 22.923441167920828 3.4159810077399007 4.1621024701744309 11.297946866601704 108.14558129943907 4.4504602476954451 24.057590374723077
leaf_count=4087 1857 17634 2618 5066 116188 1205 771 5912 4611 662 6930 275 492 410 117 1926 97 1781 243 78 1483 158 306 85 60 511 154411 833 327 691 10314 1006 1692 7717 39 474 3384 1925 2057 1386 642 876 62 103 104 2321 133 2559 3758 88 435 63 286 392 680 123 276 91 72 122 2179 39 584
internal_value=-0.00105732 -0.00946679 -0.0166512 0.0646834 -0.0239631 0.0385646 0.076838 -0.0162935 0.0280836 0.0281033 0.0399712 -0.0191696 0.0925165 -0.0198753 -0.0204467 0.0489676 -0.0208871 0.0385223 0.0576397 0.0196723 0.0674199 0.0936513 0.164372 -0.0238181 0.127703 0.0979375 -0.0259323 0.0398232 0.0676561 0.0562793 0.00426005 0.102322 0.0395193 0.00800956 0.0211353 0.0193981 0.0129055 0.00814604 0.10513 0.0913192 0.0563126 0.0512801 0.0690421 0.156414 0.218671 0.0608964 0.139018 -0.00555811 0.0193814 0.0285962 0.0379036 0.0194732 0.0789397 0.100408 0.0899857 0.140315 0.175781 0.184873 -0.0267642 0.0871303 0.0320628 0.0140415 0.00857373
internal_weight=12254.2 10864.4 9450.81 1389.77 8123.11 1413.64 1187.04 5451.01 1327.71 1184.62 875.829 5044.34 842.352 5017.42 4992.19 650.725 4977.4 344.685 565.28 503.488 372.341 191.911 41.5476 4376.24 14.7948 792.708 4069.8 50.8432 97.5187 254.202 306.447 742.749 180.43 676.982 419.685 417.409 383.15 405.97 722.045 413.409 113.577 524.306 272.47 23.2362 16.3424 249.234 40.9742 308.79 406.67 133.98 220.339 152.049 68.2893 58.0304 79.9171 35.4702 28.8941 6.2143 4018.95 120.222 251.836 149.447 144.997
internal_count=377807 361337 338846 16470 310257 22491 11404 194069 28589 21286 14640 184399 6865 184124 183714 10565 183537 4539 8639 10339 4301 1947 464 165903 177 6094 155413 930 1484 2682 10490 5583 2354 18024 10307 10268 9794 8855 5091 3034 1648 8263 3466 269 166 3197 376 6646 9670 1869 5183 4070 1113 827 1157 477 354 176 154483 813 4797 4007 3968
is_linear=0
shrinkage=0.05


Tree=12
num_leaves=64
num_cat=0
split_feature=308 141 344 27 14 29 26 308 8 239 357 0 24 1 2 406 398 4 114 333 360 62 24 274 26 5 0 22 41 19 12 271 14 3 8 14 149 36 28 26 30 27 31 394 44 97 12 133 179 206 95 24 390 94 9 370 258 19 126 26 165 1 4
split_gain=2421.58 1224.19 773.914 591.745 451.102 336.076 267.018 251.802 167.398 154.521 135.778 133.193 130.817 104.211 100.09 99.0914 141.791 129.972 98.9586 95.4056 106.787 97.0674 96.9608 87.0826 86.2652 85.839 85.5775 84.173 82.7787 118.576 108.047 105.154 90.6547 79.2668 75.9276 75.5141 74.8994 160.031 74.0409 85.2344 71.7636 71.4521 115.285 69.9867 66.7675 70.2553 65.1035 63.9838 62.138 62.0209 61.4374 58.2093 57.5502 57.4068 57.0204 56.1755 56.3482 75.4216 56.0314 53.7737 52.8262 52.4774 59.0255
threshold=1.5000000000000002 1.0000000180025095e-35 1.0000000180025095e-35 1.0000000180025095e-35 6.5000000000000009 11.500000000000002 12.500000000000002 3.5000000000000004 1.5000000000000002 1.5000000000000002 335.12080383300787 2583287.5000000005 1.5000000000000002 237.19999694824222 1.5000000000000002 221.50000000000003 1.0000000180025095e-35 1.0000000180025095e-35 2.5000000000000004 4.5000000000000009 15.399149894714357 1.5000000000000002 2.5000000000000004 2.5000000000000004 1.5000000000000002 184.00000000000003 2411458.0000000005 9.5000000000000018 62.500000000000007 3.5000000000000004 53.500000000000007 1.5000000000000002 1.5000000000000002 3155.0000000000005 1.5000000000000002 8.5000000000000018 8.5000000000000018 534.50000000000011 289.50000000000006 7.5000000000000009 405.50000000000006 1.5000000000000002 374.50000000000006 1.5000000000000002 1.0000000180025095e-35 2.5000000000000004 1.5000000000000002 2.5000000000000004 59.225000381469734 1.5000000000000002 3.5000000000000004 1.5000000000000002 -29.499999999999996 1.5000000000000002 495.00000000000006 1650.5000000000002 14.992350101470949 9.5000000000000018 2.5000000000000004 1.5000000000000002 2.5000000000000004 440.99499511718756 302.50000000000006
decision_type=10 10 8 2 2 8 2 10 2 10 10 2 2 2 2 10 10 10 8 8 8 8 2 10 2 10 2 2 10 2 2 10 2 2 2 2 10 10 8 2 8 2 8 8 2 10 2 10 10 8 10 2 8 10 10 10 10 2 10 2 10 2 8
left_child=1 2 3 12 5 10 -6 9 28 11 24 49 26 15 43 27 17 -17 25 20 22 61 38 -9 51 -11 -1 55 31 -30 -31 46 -33 -21 52 40 48 -38 54 -40 -13 42 -24 -15 -35 -46 -4 50 -3 -2 60 -5 -28 -19 -10 56 57 58 -7 -55 -8 -22 -63
right_child=7 36 8 4 6 13 47 23 19 18 -12 35 -14 14 -16 16 -18 53 -20 33 21 -23 41 -25 -26 -27 34 -29 29 30 -32 32 -34 44 -36 -37 37 -39 39 -41 -42 -43 -44 -45 45 -47 -48 -49 -50 -51 -52 -53 -54 59 -56 -57 -58 -59 -60 -61 -62 62 -64
leaf_value=-0.0043094322805332765 -0.040960596532136739 -0.038991173611672085 -0.0010402856921558612 0.026088757367519894 0.10306312415352928 -0.030073073257140273 -0.00069214451795152 0.095315428155207826 0.0079804174591502006 -0.033513240131846388 0.077908755814577901 -0.0069457240616426124 0.089034187082889085 0.068380199390823668 -0.0026027703753212185 0.10570988781167728 0.22721743265078764 -0.016747577650165536 0.10634082855819944 -0.020700916437906135 -0.011341525794108121 0.063089312499692574 0.099328207549366665 -0.021443308921165485 -0.0062396167736342755 0.063478399800595067 0.11756134356541303 0.34363502444090588 -0.019170886632730963 0.032240315988215244 0.18349028937005518 -0.010191273943588819 0.09761130800657776 0.10123599617432416 0.016275104277816432 0.10331798937910362 -0.051609587947748774 0.46978443521544622 0.033770775245653403 0.41976880531185823 0.050660748291374735 0.056524323538020775 0.38911701055735431 0.36362330082375055 0.034201327435880211 0.20952762690034779 0.073567083917648365 0.21850930954226017 0.0058539026970165324 0.021229516780521551 0.1798510378689035 0.11217698995385766 0.044819749321059178 0.14618690722639924 0.15431932947845689 0.08869710674592747 0.033983928040524511 0.36806685411835149 0.19182001975214524 -0.019198624490690347 0.24704116152440814 -0.037569752551705297 0.092686469365905674
leaf_weight=194.0290164873004 77.462962485849857 2712.6625832729042 31.508311130106449 137.05276008509099 117.03601495735347 3254.0539152249694 207.864332113415 472.36216436140239 186.79369328171015 26.432649662718177 81.47541325353086 71.280473876744509 87.13620513305068 6.1468644645065069 413.29727732948959 23.723554167896509 6.4239320438355199 549.5739071406424 132.25587031431496 44.370979510247707 557.6783866584301 53.152577679604292 13.518746588379143 16.528335496783257 333.53930336423218 166.51906360685825 30.536680340766907 1.5186618007719506 95.399988103657961 49.300182923674583 15.526286587119101 87.09699871391058 25.128029484301805 53.826312262564898 291.02483338490129 49.784277550876141 4.1545510049909344 2.2789505403488874 3.467511434108018 2.4340901914983988 223.82422175630927 48.493346495553851 4.599751170724633 2.9804862849414331 209.60169735923409 5.8739203661680213 406.21096632257104 3.6007258277386418 79.508588248863816 83.094403494149446 4.9634219054132691 22.919279230758548 248.15805034711957 10.66242058761418 6.9025492407381526 10.15984416566789 35.071314277127385 1.1910958010703314 2.8474987782537928 9.1178212407976371 2.1744028218090525 13.127911411225794 25.769871722906828
leaf_count=4549 1824 120002 459 3041 1023 133823 6179 2058 4462 396 1457 944 695 199 14683 149 196 20028 769 746 14540 629 154 232 9883 1376 243 57 1813 731 136 1917 286 587 5560 230 143 28 82 58 2491 632 66 76 3163 51 4724 50 2630 1009 31 423 3571 241 110 139 876 38 57 280 67 289 426
internal_value=-0.00105134 -0.00884541 0.00108145 -0.00768129 -0.0139643 -0.0178041 0.0421133 0.0628978 0.0285846 0.0461413 0.0181101 0.0288433 0.0309921 -0.0225768 0.0010141 -0.0251292 -0.00642689 -0.00895761 0.0730263 0.0174219 0.00927156 -0.00165647 0.0359432 0.0913681 0.00823769 0.0501914 0.0243701 -0.0285218 0.0479119 0.0162862 0.0684655 0.057126 0.0139465 0.0412214 0.0341375 0.0463558 -0.0373215 0.133085 0.0185109 0.192974 0.0367463 0.0881778 0.172897 0.16479 0.0514239 0.0389808 0.0681966 0.00948187 -0.0377142 -0.0087749 0.0059812 0.0384227 0.0527901 -0.0137355 0.0131953 -0.0286929 -0.029055 -0.0297336 -0.0298791 0.0699515 0.00187249 -0.00742507 0.0487253
internal_weight=12146.2 10826.7 8028.06 6088.28 5237.39 4901.76 335.639 1319.54 1939.78 830.654 574.987 505.446 850.885 4326.77 422.425 3904.34 599.502 593.078 325.208 1229.61 915.938 649.729 266.21 488.89 493.511 192.952 763.749 3304.84 710.171 160.226 64.8265 549.944 112.225 313.673 569.72 344.889 2798.6 6.4335 199.598 5.9016 295.105 66.6118 18.1185 9.12735 269.302 215.476 437.719 218.603 2792.17 160.557 215.002 159.972 278.695 569.354 193.696 3303.32 3293.16 3258.09 3256.9 19.7802 210.039 596.576 38.8978
internal_count=377807 366478 243675 207614 192996 185646 7350 11329 36061 9039 14804 6498 14618 170842 14958 155884 20894 20698 2541 25995 21448 15884 5564 2290 13347 1772 13923 134990 10066 2680 867 7386 2203 4547 9374 3665 122803 171 4712 140 3435 852 220 275 3801 3214 5183 6327 122632 2833 6277 3464 3814 20549 4572 134933 134794 133918 133880 521 6246 15255 715
is_linear=0
shrinkage=0.05


Tree=13
num_leaves=64
num_cat=0
split_feature=17 27 358 29 120 251 13 46 41 237 0 0 13 8 152 34 37 126 18 8 36 4 14 26 205 14 373 105 95 24 7 363 119 186 360 4 29 103 295 4 28 7 14 0 146 4 339 128 212 24 26 215 14 46 30 3 3 70 365 273 13 1 420
split_gain=2182.2 1226.59 1070.16 378.599 313.672 258.796 228.526 220.177 247.691 168.4 164.415 152.845 168.63 149.094 134.005 94.668 94.2871 92.1329 91.8684 84.9297 188.035 83.7813 80.9364 117.006 77.5639 75.0478 73.9639 73.6721 72.3806 67.3614 64.319 65.4042 62.9672 104.459 96.7018 62.4393 62.7929 61.4305 60.3762 59.3911 80.3652 65.0834 64.6295 66.422 84.7329 82.5363 63.5975 61.3877 58.0151 57.898 69.7582 57.412 56.8278 61.6534 55.7944 54.7876 54.7354 54.259 54.0517 53.9682 53.5771 51.5533 77.8108
